digraph Tree {
node [shape=box, style="filled, rounded", color="black", fontname="helvetica"] ;
edge [fontname="helvetica"] ;
0 [label="lei <= 0.5\ngini = 0.66\nsamples = 2353\nvalue = [1402, 1157, 1145]\nclass = outros", fillcolor="#fcf3ec"] ;
1 [label="pessoal <= 0.5\ngini = 0.65\nsamples = 1944\nvalue = [1306, 686, 1049]\nclass = outros", fillcolor="#fcefe5"] ;
0 -> 1 [labeldistance=2.5, labelangle=45, headlabel="True"] ;
2 [label="paulo <= 0.5\ngini = 0.65\nsamples = 1929\nvalue = [1301, 684, 1030]\nclass = outros", fillcolor="#fbeee4"] ;
1 -> 2 ;
3 [label="texto <= 0.5\ngini = 0.64\nsamples = 1530\nvalue = [1013, 476, 889]\nclass = outros", fillcolor="#fdf5ef"] ;
2 -> 3 ;
4 [label="cintia <= 0.5\ngini = 0.46\nsamples = 74\nvalue = [91, 26, 13]\nclass = outros", fillcolor="#efb083"] ;
3 -> 4 ;
5 [label="trinta <= 0.5\ngini = 0.45\nsamples = 73\nvalue = [91, 24, 13]\nclass = outros", fillcolor="#eeae7f"] ;
4 -> 5 ;
6 [label="quantia <= 0.5\ngini = 0.44\nsamples = 72\nvalue = [91, 23, 13]\nclass = outros", fillcolor="#eead7e"] ;
5 -> 6 ;
7 [label="custas <= 0.5\ngini = 0.43\nsamples = 67\nvalue = [87, 19, 13]\nclass = outros", fillcolor="#eda978"] ;
6 -> 7 ;
8 [label="rodrigo <= 0.5\ngini = 0.37\nsamples = 60\nvalue = [79, 10, 13]\nclass = outros", fillcolor="#eca26c"] ;
7 -> 8 ;
9 [label="principio <= 0.5\ngini = 0.34\nsamples = 56\nvalue = [76, 9, 10]\nclass = outros", fillcolor="#eb9d65"] ;
8 -> 9 ;
10 [label="gini = 0.34\nsamples = 55\nvalue = [75, 9, 10]\nclass = outros", fillcolor="#eb9e66"] ;
9 -> 10 ;
11 [label="gini = 0.0\nsamples = 1\nvalue = [1, 0, 0]\nclass = outros", fillcolor="#e58139"] ;
9 -> 11 ;
12 [label="outro <= 1.0\ngini = 0.61\nsamples = 4\nvalue = [3, 1, 3]\nclass = outros", fillcolor="#ffffff"] ;
8 -> 12 ;
13 [label="gini = 0.38\nsamples = 3\nvalue = [3, 1, 0]\nclass = outros", fillcolor="#eeab7b"] ;
12 -> 13 ;
14 [label="gini = 0.0\nsamples = 1\nvalue = [0, 0, 3]\nclass = sentença", fillcolor="#8139e5"] ;
12 -> 14 ;
15 [label="deixo <= 0.5\ngini = 0.5\nsamples = 7\nvalue = [8, 9, 0]\nclass = decisao", fillcolor="#e9fcf1"] ;
7 -> 15 ;
16 [label="julgo <= 0.5\ngini = 0.49\nsamples = 6\nvalue = [7, 9, 0]\nclass = decisao", fillcolor="#d3f9e3"] ;
15 -> 16 ;
17 [label="gini = 0.47\nsamples = 3\nvalue = [5, 3, 0]\nclass = outros", fillcolor="#f5cdb0"] ;
16 -> 17 ;
18 [label="gini = 0.38\nsamples = 3\nvalue = [2, 6, 0]\nclass = decisao", fillcolor="#7beeab"] ;
16 -> 18 ;
19 [label="gini = 0.0\nsamples = 1\nvalue = [1, 0, 0]\nclass = outros", fillcolor="#e58139"] ;
15 -> 19 ;
20 [label="todo <= 0.5\ngini = 0.5\nsamples = 5\nvalue = [4, 4, 0]\nclass = outros", fillcolor="#ffffff"] ;
6 -> 20 ;
21 [label="lira <= 0.5\ngini = 0.44\nsamples = 4\nvalue = [4, 2, 0]\nclass = outros", fillcolor="#f2c09c"] ;
20 -> 21 ;
22 [label="pagamento <= 0.5\ngini = 0.32\nsamples = 3\nvalue = [4, 1, 0]\nclass = outros", fillcolor="#eca06a"] ;
21 -> 22 ;
23 [label="gini = 0.38\nsamples = 2\nvalue = [3, 1, 0]\nclass = outros", fillcolor="#eeab7b"] ;
22 -> 23 ;
24 [label="gini = 0.0\nsamples = 1\nvalue = [1, 0, 0]\nclass = outros", fillcolor="#e58139"] ;
22 -> 24 ;
25 [label="gini = 0.0\nsamples = 1\nvalue = [0, 1, 0]\nclass = decisao", fillcolor="#39e581"] ;
21 -> 25 ;
26 [label="gini = 0.0\nsamples = 1\nvalue = [0, 2, 0]\nclass = decisao", fillcolor="#39e581"] ;
20 -> 26 ;
27 [label="gini = 0.0\nsamples = 1\nvalue = [0, 1, 0]\nclass = decisao", fillcolor="#39e581"] ;
5 -> 27 ;
28 [label="gini = 0.0\nsamples = 1\nvalue = [0, 2, 0]\nclass = decisao", fillcolor="#39e581"] ;
4 -> 28 ;
29 [label="extinto <= 0.5\ngini = 0.64\nsamples = 1456\nvalue = [922, 450, 876]\nclass = outros", fillcolor="#fefbf8"] ;
3 -> 29 ;
30 [label="marcada <= 0.5\ngini = 0.61\nsamples = 1325\nvalue = [907, 274, 870]\nclass = outros", fillcolor="#fefbf9"] ;
29 -> 30 ;
31 [label="r <= 0.5\ngini = 0.61\nsamples = 1302\nvalue = [907, 274, 835]\nclass = outros", fillcolor="#fdf7f3"] ;
30 -> 31 ;
32 [label="valendo <= 0.5\ngini = 0.59\nsamples = 1178\nvalue = [809, 193, 815]\nclass = sentença", fillcolor="#fefeff"] ;
31 -> 32 ;
33 [label="certifico <= 0.5\ngini = 0.59\nsamples = 1155\nvalue = [768, 190, 815]\nclass = sentença", fillcolor="#f9f6fe"] ;
32 -> 33 ;
34 [label="encaminhado <= 0.5\ngini = 0.59\nsamples = 1089\nvalue = [753, 190, 727]\nclass = outros", fillcolor="#fefcfa"] ;
33 -> 34 ;
35 [label="gini = 0.59\nsamples = 1085\nvalue = [744, 190, 727]\nclass = outros", fillcolor="#fffdfb"] ;
34 -> 35 ;
36 [label="gini = 0.0\nsamples = 4\nvalue = [9, 0, 0]\nclass = outros", fillcolor="#e58139"] ;
34 -> 36 ;
37 [label="gasperoni <= 0.5\ngini = 0.25\nsamples = 66\nvalue = [15, 0, 88]\nclass = sentença", fillcolor="#965be9"] ;
33 -> 37 ;
38 [label="gini = 0.21\nsamples = 65\nvalue = [12, 0, 88]\nclass = sentença", fillcolor="#9254e9"] ;
37 -> 38 ;
39 [label="gini = 0.0\nsamples = 1\nvalue = [3, 0, 0]\nclass = outros", fillcolor="#e58139"] ;
37 -> 39 ;
40 [label="tatiana <= 0.5\ngini = 0.13\nsamples = 23\nvalue = [41, 3, 0]\nclass = outros", fillcolor="#e78a47"] ;
32 -> 40 ;
41 [label="gini = 0.0\nsamples = 22\nvalue = [41, 0, 0]\nclass = outros", fillcolor="#e58139"] ;
40 -> 41 ;
42 [label="gini = 0.0\nsamples = 1\nvalue = [0, 3, 0]\nclass = decisao", fillcolor="#39e581"] ;
40 -> 42 ;
43 [label="acrescida <= 0.5\ngini = 0.58\nsamples = 124\nvalue = [98, 81, 20]\nclass = outros", fillcolor="#fbede2"] ;
31 -> 43 ;
44 [label="produto <= 0.5\ngini = 0.58\nsamples = 120\nvalue = [98, 76, 20]\nclass = outros", fillcolor="#fae8da"] ;
43 -> 44 ;
45 [label="determina <= 0.5\ngini = 0.56\nsamples = 104\nvalue = [97, 53, 20]\nclass = outros", fillcolor="#f5d0b5"] ;
44 -> 45 ;
46 [label="gini = 0.56\nsamples = 103\nvalue = [97, 51, 20]\nclass = outros", fillcolor="#f5cdb1"] ;
45 -> 46 ;
47 [label="gini = 0.0\nsamples = 1\nvalue = [0, 2, 0]\nclass = decisao", fillcolor="#39e581"] ;
45 -> 47 ;
48 [label="caroline <= 0.5\ngini = 0.08\nsamples = 16\nvalue = [1, 23, 0]\nclass = decisao", fillcolor="#42e686"] ;
44 -> 48 ;
49 [label="gini = 0.0\nsamples = 15\nvalue = [0, 23, 0]\nclass = decisao", fillcolor="#39e581"] ;
48 -> 49 ;
50 [label="gini = 0.0\nsamples = 1\nvalue = [1, 0, 0]\nclass = outros", fillcolor="#e58139"] ;
48 -> 50 ;
51 [label="gini = 0.0\nsamples = 4\nvalue = [0, 5, 0]\nclass = decisao", fillcolor="#39e581"] ;
43 -> 51 ;
52 [label="gini = 0.0\nsamples = 23\nvalue = [0, 0, 35]\nclass = sentença", fillcolor="#8139e5"] ;
30 -> 52 ;
53 [label="bloqueios <= 0.5\ngini = 0.2\nsamples = 131\nvalue = [15, 176, 6]\nclass = decisao", fillcolor="#50e890"] ;
29 -> 53 ;
54 [label="henrique <= 0.5\ngini = 0.19\nsamples = 130\nvalue = [14, 176, 6]\nclass = decisao", fillcolor="#4fe88f"] ;
53 -> 54 ;
55 [label="denadai <= 0.5\ngini = 0.17\nsamples = 127\nvalue = [12, 173, 6]\nclass = decisao", fillcolor="#4de88e"] ;
54 -> 55 ;
56 [label="jorge <= 0.5\ngini = 0.16\nsamples = 126\nvalue = [12, 173, 4]\nclass = decisao", fillcolor="#4be78c"] ;
55 -> 56 ;
57 [label="hipossuficiencia <= 0.5\ngini = 0.15\nsamples = 123\nvalue = [11, 171, 4]\nclass = decisao", fillcolor="#4ae78c"] ;
56 -> 57 ;
58 [label="gini = 0.13\nsamples = 121\nvalue = [9, 171, 4]\nclass = decisao", fillcolor="#48e78a"] ;
57 -> 58 ;
59 [label="gini = 0.0\nsamples = 2\nvalue = [2, 0, 0]\nclass = outros", fillcolor="#e58139"] ;
57 -> 59 ;
60 [label="intimacao <= 0.5\ngini = 0.44\nsamples = 3\nvalue = [1, 2, 0]\nclass = decisao", fillcolor="#9cf2c0"] ;
56 -> 60 ;
61 [label="gini = 0.5\nsamples = 2\nvalue = [1, 1, 0]\nclass = outros", fillcolor="#ffffff"] ;
60 -> 61 ;
62 [label="gini = 0.0\nsamples = 1\nvalue = [0, 1, 0]\nclass = decisao", fillcolor="#39e581"] ;
60 -> 62 ;
63 [label="gini = 0.0\nsamples = 1\nvalue = [0, 0, 2]\nclass = sentença", fillcolor="#8139e5"] ;
55 -> 63 ;
64 [label="autos <= 0.5\ngini = 0.48\nsamples = 3\nvalue = [2, 3, 0]\nclass = decisao", fillcolor="#bdf6d5"] ;
54 -> 64 ;
65 [label="gini = 0.0\nsamples = 2\nvalue = [0, 3, 0]\nclass = decisao", fillcolor="#39e581"] ;
64 -> 65 ;
66 [label="gini = 0.0\nsamples = 1\nvalue = [2, 0, 0]\nclass = outros", fillcolor="#e58139"] ;
64 -> 66 ;
67 [label="gini = 0.0\nsamples = 1\nvalue = [1, 0, 0]\nclass = outros", fillcolor="#e58139"] ;
53 -> 67 ;
68 [label="sito <= 0.5\ngini = 0.64\nsamples = 399\nvalue = [288, 208, 141]\nclass = outros", fillcolor="#fae8da"] ;
2 -> 68 ;
69 [label="arquivemse <= 0.5\ngini = 0.64\nsamples = 394\nvalue = [288, 208, 134]\nclass = outros", fillcolor="#fae7d9"] ;
68 -> 69 ;
70 [label="r <= 1.5\ngini = 0.64\nsamples = 391\nvalue = [288, 202, 134]\nclass = outros", fillcolor="#fae5d7"] ;
69 -> 70 ;
71 [label="ficando <= 0.5\ngini = 0.63\nsamples = 365\nvalue = [277, 170, 134]\nclass = outros", fillcolor="#f8decb"] ;
70 -> 71 ;
72 [label="vista <= 0.5\ngini = 0.62\nsamples = 345\nvalue = [274, 146, 126]\nclass = outros", fillcolor="#f7d7c0"] ;
71 -> 72 ;
73 [label="comunicacoes <= 0.5\ngini = 0.61\nsamples = 305\nvalue = [246, 106, 118]\nclass = outros", fillcolor="#f6d1b7"] ;
72 -> 73 ;
74 [label="subscrevi <= 0.5\ngini = 0.61\nsamples = 295\nvalue = [239, 96, 118]\nclass = outros", fillcolor="#f6d1b7"] ;
73 -> 74 ;
75 [label="gini = 0.6\nsamples = 291\nvalue = [239, 90, 118]\nclass = outros", fillcolor="#f5d1b6"] ;
74 -> 75 ;
76 [label="gini = 0.0\nsamples = 4\nvalue = [0, 6, 0]\nclass = decisao", fillcolor="#39e581"] ;
74 -> 76 ;
77 [label="parte <= 0.5\ngini = 0.48\nsamples = 10\nvalue = [7, 10, 0]\nclass = decisao", fillcolor="#c4f7d9"] ;
73 -> 77 ;
78 [label="gini = 0.35\nsamples = 5\nvalue = [2, 7, 0]\nclass = decisao", fillcolor="#72eca5"] ;
77 -> 78 ;
79 [label="gini = 0.47\nsamples = 5\nvalue = [5, 3, 0]\nclass = outros", fillcolor="#f5cdb0"] ;
77 -> 79 ;
80 [label="nao <= 2.5\ngini = 0.58\nsamples = 40\nvalue = [28, 40, 8]\nclass = decisao", fillcolor="#cef8e0"] ;
72 -> 80 ;
81 [label="instancia <= 0.5\ngini = 0.55\nsamples = 37\nvalue = [26, 40, 6]\nclass = decisao", fillcolor="#c3f7d9"] ;
80 -> 81 ;
82 [label="gini = 0.4\nsamples = 20\nvalue = [10, 30, 1]\nclass = decisao", fillcolor="#7feeae"] ;
81 -> 82 ;
83 [label="gini = 0.6\nsamples = 17\nvalue = [16, 10, 5]\nclass = outros", fillcolor="#f8dbc6"] ;
81 -> 83 ;
84 [label="boa <= 1.0\ngini = 0.5\nsamples = 3\nvalue = [2, 0, 2]\nclass = outros", fillcolor="#ffffff"] ;
80 -> 84 ;
85 [label="gini = 0.0\nsamples = 2\nvalue = [2, 0, 0]\nclass = outros", fillcolor="#e58139"] ;
84 -> 85 ;
86 [label="gini = 0.0\nsamples = 1\nvalue = [0, 0, 2]\nclass = sentença", fillcolor="#8139e5"] ;
84 -> 86 ;
87 [label="eletronico <= 0.5\ngini = 0.47\nsamples = 20\nvalue = [3, 24, 8]\nclass = decisao", fillcolor="#8af0b4"] ;
71 -> 87 ;
88 [label="cível <= 0.5\ngini = 0.52\nsamples = 18\nvalue = [3, 19, 8]\nclass = decisao", fillcolor="#9cf2c0"] ;
87 -> 88 ;
89 [label="vanessa <= 0.5\ngini = 0.48\nsamples = 17\nvalue = [3, 19, 6]\nclass = decisao", fillcolor="#8af0b5"] ;
88 -> 89 ;
90 [label="gini = 0.51\nsamples = 15\nvalue = [3, 17, 6]\nclass = decisao", fillcolor="#92f1ba"] ;
89 -> 90 ;
91 [label="gini = 0.0\nsamples = 2\nvalue = [0, 2, 0]\nclass = decisao", fillcolor="#39e581"] ;
89 -> 91 ;
92 [label="gini = 0.0\nsamples = 1\nvalue = [0, 0, 2]\nclass = sentença", fillcolor="#8139e5"] ;
88 -> 92 ;
93 [label="gini = 0.0\nsamples = 2\nvalue = [0, 5, 0]\nclass = decisao", fillcolor="#39e581"] ;
87 -> 93 ;
94 [label="reparacao <= 0.5\ngini = 0.38\nsamples = 26\nvalue = [11, 32, 0]\nclass = decisao", fillcolor="#7deeac"] ;
70 -> 94 ;
95 [label="correcao <= 0.5\ngini = 0.42\nsamples = 22\nvalue = [11, 25, 0]\nclass = decisao", fillcolor="#90f0b8"] ;
94 -> 95 ;
96 [label="penhora <= 0.5\ngini = 0.49\nsamples = 17\nvalue = [11, 14, 0]\nclass = decisao", fillcolor="#d5f9e4"] ;
95 -> 96 ;
97 [label="majori <= 0.5\ngini = 0.43\nsamples = 14\nvalue = [6, 13, 0]\nclass = decisao", fillcolor="#94f1bb"] ;
96 -> 97 ;
98 [label="gini = 0.44\nsamples = 13\nvalue = [6, 12, 0]\nclass = decisao", fillcolor="#9cf2c0"] ;
97 -> 98 ;
99 [label="gini = 0.0\nsamples = 1\nvalue = [0, 1, 0]\nclass = decisao", fillcolor="#39e581"] ;
97 -> 99 ;
100 [label="caparelli <= 0.5\ngini = 0.28\nsamples = 3\nvalue = [5, 1, 0]\nclass = outros", fillcolor="#ea9a61"] ;
96 -> 100 ;
101 [label="gini = 0.38\nsamples = 2\nvalue = [3, 1, 0]\nclass = outros", fillcolor="#eeab7b"] ;
100 -> 101 ;
102 [label="gini = 0.0\nsamples = 1\nvalue = [2, 0, 0]\nclass = outros", fillcolor="#e58139"] ;
100 -> 102 ;
103 [label="gini = 0.0\nsamples = 5\nvalue = [0, 11, 0]\nclass = decisao", fillcolor="#39e581"] ;
95 -> 103 ;
104 [label="gini = 0.0\nsamples = 4\nvalue = [0, 7, 0]\nclass = decisao", fillcolor="#39e581"] ;
94 -> 104 ;
105 [label="gini = 0.0\nsamples = 3\nvalue = [0, 6, 0]\nclass = decisao", fillcolor="#39e581"] ;
69 -> 105 ;
106 [label="gini = 0.0\nsamples = 5\nvalue = [0, 0, 7]\nclass = sentença", fillcolor="#8139e5"] ;
68 -> 106 ;
107 [label="adquirirem <= 0.5\ngini = 0.42\nsamples = 15\nvalue = [5, 2, 19]\nclass = sentença", fillcolor="#ab7bee"] ;
1 -> 107 ;
108 [label="requerido <= 0.5\ngini = 0.33\nsamples = 14\nvalue = [5, 0, 19]\nclass = sentença", fillcolor="#a26dec"] ;
107 -> 108 ;
109 [label="luiz <= 2.5\ngini = 0.4\nsamples = 11\nvalue = [5, 0, 13]\nclass = sentença", fillcolor="#b185ef"] ;
108 -> 109 ;
110 [label="apenas <= 0.5\ngini = 0.36\nsamples = 10\nvalue = [4, 0, 13]\nclass = sentença", fillcolor="#a876ed"] ;
109 -> 110 ;
111 [label="consistente <= 1.5\ngini = 0.43\nsamples = 9\nvalue = [4, 0, 9]\nclass = sentença", fillcolor="#b991f1"] ;
110 -> 111 ;
112 [label="data <= 1.5\ngini = 0.44\nsamples = 8\nvalue = [4, 0, 8]\nclass = sentença", fillcolor="#c09cf2"] ;
111 -> 112 ;
113 [label="h <= 0.5\ngini = 0.2\nsamples = 6\nvalue = [1, 0, 8]\nclass = sentença", fillcolor="#9152e8"] ;
112 -> 113 ;
114 [label="defiro <= 0.5\ngini = 0.24\nsamples = 5\nvalue = [1, 0, 6]\nclass = sentença", fillcolor="#965ae9"] ;
113 -> 114 ;
115 [label="gini = 0.0\nsamples = 1\nvalue = [0, 0, 3]\nclass = sentença", fillcolor="#8139e5"] ;
114 -> 115 ;
116 [label="gini = 0.38\nsamples = 4\nvalue = [1, 0, 3]\nclass = sentença", fillcolor="#ab7bee"] ;
114 -> 116 ;
117 [label="gini = 0.0\nsamples = 1\nvalue = [0, 0, 2]\nclass = sentença", fillcolor="#8139e5"] ;
113 -> 117 ;
118 [label="gini = 0.0\nsamples = 2\nvalue = [3, 0, 0]\nclass = outros", fillcolor="#e58139"] ;
112 -> 118 ;
119 [label="gini = 0.0\nsamples = 1\nvalue = [0, 0, 1]\nclass = sentença", fillcolor="#8139e5"] ;
111 -> 119 ;
120 [label="gini = 0.0\nsamples = 1\nvalue = [0, 0, 4]\nclass = sentença", fillcolor="#8139e5"] ;
110 -> 120 ;
121 [label="gini = 0.0\nsamples = 1\nvalue = [1, 0, 0]\nclass = outros", fillcolor="#e58139"] ;
109 -> 121 ;
122 [label="gini = 0.0\nsamples = 3\nvalue = [0, 0, 6]\nclass = sentença", fillcolor="#8139e5"] ;
108 -> 122 ;
123 [label="gini = 0.0\nsamples = 1\nvalue = [0, 2, 0]\nclass = decisao", fillcolor="#39e581"] ;
107 -> 123 ;
124 [label="arquive-se <= 0.5\ngini = 0.45\nsamples = 409\nvalue = [96, 471, 96]\nclass = decisao", fillcolor="#7ceeac"] ;
0 -> 124 [labeldistance=2.5, labelangle=-45, headlabel="False"] ;
125 [label="informativos <= 0.5\ngini = 0.49\nsamples = 355\nvalue = [88, 386, 96]\nclass = decisao", fillcolor="#86efb2"] ;
124 -> 125 ;
126 [label="guaruja <= 0.5\ngini = 0.47\nsamples = 349\nvalue = [76, 386, 96]\nclass = decisao", fillcolor="#83efb0"] ;
125 -> 126 ;
127 [label="requerido <= 2.5\ngini = 0.46\nsamples = 345\nvalue = [74, 386, 87]\nclass = decisao", fillcolor="#7eeead"] ;
126 -> 127 ;
128 [label="rodolfo <= 0.5\ngini = 0.43\nsamples = 330\nvalue = [72, 379, 70]\nclass = decisao", fillcolor="#78eda9"] ;
127 -> 128 ;
129 [label="abril <= 0.5\ngini = 0.43\nsamples = 328\nvalue = [68, 379, 70]\nclass = decisao", fillcolor="#76eda8"] ;
128 -> 129 ;
130 [label="comparecendo <= 0.5\ngini = 0.4\nsamples = 322\nvalue = [65, 378, 60]\nclass = decisao", fillcolor="#72eca5"] ;
129 -> 130 ;
131 [label="antecipo <= 0.5\ngini = 0.39\nsamples = 318\nvalue = [65, 378, 54]\nclass = decisao", fillcolor="#70eca4"] ;
130 -> 131 ;
132 [label="atos <= 0.5\ngini = 0.38\nsamples = 316\nvalue = [65, 378, 48]\nclass = decisao", fillcolor="#6eeca2"] ;
131 -> 132 ;
133 [label="gini = 0.36\nsamples = 307\nvalue = [60, 374, 42]\nclass = decisao", fillcolor="#6aeba0"] ;
132 -> 133 ;
134 [label="gini = 0.66\nsamples = 9\nvalue = [5, 4, 6]\nclass = sentença", fillcolor="#f2ebfc"] ;
132 -> 134 ;
135 [label="gini = 0.0\nsamples = 2\nvalue = [0, 0, 6]\nclass = sentença", fillcolor="#8139e5"] ;
131 -> 135 ;
136 [label="gini = 0.0\nsamples = 4\nvalue = [0, 0, 6]\nclass = sentença", fillcolor="#8139e5"] ;
130 -> 136 ;
137 [label="encontrar-se <= 0.5\ngini = 0.44\nsamples = 6\nvalue = [3, 1, 10]\nclass = sentença", fillcolor="#af81ee"] ;
129 -> 137 ;
138 [label="efeitos <= 0.5\ngini = 0.17\nsamples = 5\nvalue = [0, 1, 10]\nclass = sentença", fillcolor="#8e4de8"] ;
137 -> 138 ;
139 [label="gini = 0.0\nsamples = 4\nvalue = [0, 0, 10]\nclass = sentença", fillcolor="#8139e5"] ;
138 -> 139 ;
140 [label="gini = 0.0\nsamples = 1\nvalue = [0, 1, 0]\nclass = decisao", fillcolor="#39e581"] ;
138 -> 140 ;
141 [label="gini = 0.0\nsamples = 1\nvalue = [3, 0, 0]\nclass = outros", fillcolor="#e58139"] ;
137 -> 141 ;
142 [label="gini = 0.0\nsamples = 2\nvalue = [4, 0, 0]\nclass = outros", fillcolor="#e58139"] ;
128 -> 142 ;
143 [label="c/c <= 0.5\ngini = 0.49\nsamples = 15\nvalue = [2, 7, 17]\nclass = sentença", fillcolor="#bd97f1"] ;
127 -> 143 ;
144 [label="UNKNOWN <= 0.5\ngini = 0.42\nsamples = 13\nvalue = [2, 4, 17]\nclass = sentença", fillcolor="#a978ed"] ;
143 -> 144 ;
145 [label="lojas <= 0.5\ngini = 0.26\nsamples = 7\nvalue = [2, 0, 11]\nclass = sentença", fillcolor="#985dea"] ;
144 -> 145 ;
146 [label="gini = 0.0\nsamples = 6\nvalue = [0, 0, 11]\nclass = sentença", fillcolor="#8139e5"] ;
145 -> 146 ;
147 [label="gini = 0.0\nsamples = 1\nvalue = [2, 0, 0]\nclass = outros", fillcolor="#e58139"] ;
145 -> 147 ;
148 [label="requeridos <= 0.5\ngini = 0.48\nsamples = 6\nvalue = [0, 4, 6]\nclass = sentença", fillcolor="#d5bdf6"] ;
144 -> 148 ;
149 [label="obrig <= 0.5\ngini = 0.38\nsamples = 5\nvalue = [0, 2, 6]\nclass = sentença", fillcolor="#ab7bee"] ;
148 -> 149 ;
150 [label="guimaraes <= 1.5\ngini = 0.24\nsamples = 4\nvalue = [0, 1, 6]\nclass = sentença", fillcolor="#965ae9"] ;
149 -> 150 ;
151 [label="gini = 0.32\nsamples = 3\nvalue = [0, 1, 4]\nclass = sentença", fillcolor="#a06aec"] ;
150 -> 151 ;
152 [label="gini = 0.0\nsamples = 1\nvalue = [0, 0, 2]\nclass = sentença", fillcolor="#8139e5"] ;
150 -> 152 ;
153 [label="gini = 0.0\nsamples = 1\nvalue = [0, 1, 0]\nclass = decisao", fillcolor="#39e581"] ;
149 -> 153 ;
154 [label="gini = 0.0\nsamples = 1\nvalue = [0, 2, 0]\nclass = decisao", fillcolor="#39e581"] ;
148 -> 154 ;
155 [label="gini = 0.0\nsamples = 2\nvalue = [0, 3, 0]\nclass = decisao", fillcolor="#39e581"] ;
143 -> 155 ;
156 [label="partes <= 2.0\ngini = 0.3\nsamples = 4\nvalue = [2, 0, 9]\nclass = sentença", fillcolor="#9d65eb"] ;
126 -> 156 ;
157 [label="gini = 0.0\nsamples = 1\nvalue = [2, 0, 0]\nclass = outros", fillcolor="#e58139"] ;
156 -> 157 ;
158 [label="gini = 0.0\nsamples = 3\nvalue = [0, 0, 9]\nclass = sentença", fillcolor="#8139e5"] ;
156 -> 158 ;
159 [label="gini = 0.0\nsamples = 6\nvalue = [12, 0, 0]\nclass = outros", fillcolor="#e58139"] ;
125 -> 159 ;
160 [label="goncalves <= 0.5\ngini = 0.16\nsamples = 54\nvalue = [8, 85, 0]\nclass = decisao", fillcolor="#4ce78d"] ;
124 -> 160 ;
161 [label="defensor <= 0.5\ngini = 0.17\nsamples = 52\nvalue = [8, 80, 0]\nclass = decisao", fillcolor="#4de88e"] ;
160 -> 161 ;
162 [label="fetj <= 0.5\ngini = 0.09\nsamples = 49\nvalue = [4, 78, 0]\nclass = decisao", fillcolor="#43e687"] ;
161 -> 162 ;
163 [label="documentos <= 0.5\ngini = 0.07\nsamples = 48\nvalue = [3, 78, 0]\nclass = decisao", fillcolor="#41e686"] ;
162 -> 163 ;
164 [label="utilidades <= 0.5\ngini = 0.09\nsamples = 41\nvalue = [3, 60, 0]\nclass = decisao", fillcolor="#43e687"] ;
163 -> 164 ;
165 [label="juiz <= 0.5\ngini = 0.1\nsamples = 36\nvalue = [3, 53, 0]\nclass = decisao", fillcolor="#44e688"] ;
164 -> 165 ;
166 [label="parcialmente <= 0.5\ngini = 0.15\nsamples = 26\nvalue = [3, 33, 0]\nclass = decisao", fillcolor="#4be78c"] ;
165 -> 166 ;
167 [label="paragrafo <= 0.5\ngini = 0.16\nsamples = 24\nvalue = [3, 31, 0]\nclass = decisao", fillcolor="#4ce88d"] ;
166 -> 167 ;
168 [label="gini = 0.17\nsamples = 21\nvalue = [3, 28, 0]\nclass = decisao", fillcolor="#4ee88e"] ;
167 -> 168 ;
169 [label="gini = 0.0\nsamples = 3\nvalue = [0, 3, 0]\nclass = decisao", fillcolor="#39e581"] ;
167 -> 169 ;
170 [label="gini = 0.0\nsamples = 2\nvalue = [0, 2, 0]\nclass = decisao", fillcolor="#39e581"] ;
166 -> 170 ;
171 [label="gini = 0.0\nsamples = 10\nvalue = [0, 20, 0]\nclass = decisao", fillcolor="#39e581"] ;
165 -> 171 ;
172 [label="gini = 0.0\nsamples = 5\nvalue = [0, 7, 0]\nclass = decisao", fillcolor="#39e581"] ;
164 -> 172 ;
173 [label="gini = 0.0\nsamples = 7\nvalue = [0, 18, 0]\nclass = decisao", fillcolor="#39e581"] ;
163 -> 173 ;
174 [label="gini = 0.0\nsamples = 1\nvalue = [1, 0, 0]\nclass = outros", fillcolor="#e58139"] ;
162 -> 174 ;
175 [label="valores <= 0.5\ngini = 0.44\nsamples = 3\nvalue = [4, 2, 0]\nclass = outros", fillcolor="#f2c09c"] ;
161 -> 175 ;
176 [label="rata <= 0.5\ngini = 0.48\nsamples = 2\nvalue = [3, 2, 0]\nclass = outros", fillcolor="#f6d5bd"] ;
175 -> 176 ;
177 [label="gini = 0.0\nsamples = 1\nvalue = [3, 0, 0]\nclass = outros", fillcolor="#e58139"] ;
176 -> 177 ;
178 [label="gini = 0.0\nsamples = 1\nvalue = [0, 2, 0]\nclass = decisao", fillcolor="#39e581"] ;
176 -> 178 ;
179 [label="gini = 0.0\nsamples = 1\nvalue = [1, 0, 0]\nclass = outros", fillcolor="#e58139"] ;
175 -> 179 ;
180 [label="gini = 0.0\nsamples = 2\nvalue = [0, 5, 0]\nclass = decisao", fillcolor="#39e581"] ;
160 -> 180 ;
}