digraph Tree {
node [shape=box, style="filled, rounded", color="black", fontname="helvetica"] ;
edge [fontname="helvetica"] ;
0 [label="codigo <= 0.5\ngini = 0.63\nsamples = 5573\nvalue = [795, 4744, 1468, 1794]\nclass = decisao", fillcolor="#b2f4ac"] ;
1 [label="================================================== <= 0.5\ngini = 0.62\nsamples = 5102\nvalue = [726, 4491, 1095, 1768]\nclass = decisao", fillcolor="#b0f4aa"] ;
0 -> 1 [labeldistance=2.5, labelangle=45, headlabel="True"] ;
2 [label="audiencia <= 0.5\ngini = 0.55\nsamples = 2921\nvalue = [205, 2895, 586, 911]\nclass = decisao", fillcolor="#9cf194"] ;
1 -> 2 ;
3 [label="merito <= 0.5\ngini = 0.38\nsamples = 2345\nvalue = [194, 2789, 530, 99]\nclass = decisao", fillcolor="#78ec6e"] ;
2 -> 3 ;
4 [label="desentranhamento <= 0.5\ngini = 0.34\nsamples = 2208\nvalue = [181, 2727, 399, 98]\nclass = decisao", fillcolor="#71eb66"] ;
3 -> 4 ;
5 [label="morais <= 0.5\ngini = 0.33\nsamples = 2187\nvalue = [179, 2716, 378, 98]\nclass = decisao", fillcolor="#6feb64"] ;
4 -> 5 ;
6 [label="superior <= 1.5\ngini = 0.31\nsamples = 2090\nvalue = [175, 2641, 303, 97]\nclass = decisao", fillcolor="#6bea60"] ;
5 -> 6 ;
7 [label="jus <= 0.5\ngini = 0.31\nsamples = 2088\nvalue = [172, 2641, 303, 97]\nclass = decisao", fillcolor="#6bea60"] ;
6 -> 7 ;
8 [label="julgo <= 0.5\ngini = 0.31\nsamples = 2087\nvalue = [169, 2641, 303, 97]\nclass = decisao", fillcolor="#6bea60"] ;
7 -> 8 ;
9 [label="arbitrada <= 0.5\ngini = 0.26\nsamples = 1965\nvalue = [152, 2590, 184, 97]\nclass = decisao", fillcolor="#63e957"] ;
8 -> 9 ;
10 [label="rj <= 0.5\ngini = 0.26\nsamples = 1962\nvalue = [146, 2589, 184, 97]\nclass = decisao", fillcolor="#63e957"] ;
9 -> 10 ;
11 [label="c.p.a <= 0.5\ngini = 0.29\nsamples = 1012\nvalue = [124, 1311, 95, 32]\nclass = decisao", fillcolor="#67ea5c"] ;
10 -> 11 ;
12 [label="possa <= 1.5\ngini = 0.28\nsamples = 1009\nvalue = [121, 1310, 95, 32]\nclass = decisao", fillcolor="#67e95b"] ;
11 -> 12 ;
13 [label="homologo <= 0.5\ngini = 0.28\nsamples = 1005\nvalue = [115, 1309, 95, 32]\nclass = decisao", fillcolor="#66e95a"] ;
12 -> 13 ;
14 [label="alexandrino <= 0.5\ngini = 0.26\nsamples = 985\nvalue = [114, 1302, 74, 32]\nclass = decisao", fillcolor="#64e958"] ;
13 -> 14 ;
15 [label="temporárias <= 0.5\ngini = 0.26\nsamples = 984\nvalue = [114, 1302, 74, 30]\nclass = decisao", fillcolor="#64e958"] ;
14 -> 15 ;
16 [label="(...)", fillcolor="#C0C0C0"] ;
15 -> 16 ;
675 [label="(...)", fillcolor="#C0C0C0"] ;
15 -> 675 ;
680 [label="gini = 0.0\nsamples = 1\nvalue = [0, 0, 0, 2]\nclass = audiencia", fillcolor="#d739e5"] ;
14 -> 680 ;
681 [label=".. <= 0.5\ngini = 0.42\nsamples = 20\nvalue = [1, 7, 21, 0]\nclass = sentença", fillcolor="#81c1ee"] ;
13 -> 681 ;
682 [label="código <= 0.5\ngini = 0.32\nsamples = 19\nvalue = [1, 4, 21, 0]\nclass = sentença", fillcolor="#66b3eb"] ;
681 -> 682 ;
683 [label="(...)", fillcolor="#C0C0C0"] ;
682 -> 683 ;
684 [label="(...)", fillcolor="#C0C0C0"] ;
682 -> 684 ;
705 [label="gini = 0.0\nsamples = 1\nvalue = [0, 3, 0, 0]\nclass = decisao", fillcolor="#47e539"] ;
681 -> 705 ;
706 [label="z <= 1.0\ngini = 0.24\nsamples = 4\nvalue = [6, 1, 0, 0]\nclass = outros", fillcolor="#e9965a"] ;
12 -> 706 ;
707 [label="conhecimento <= 3.5\ngini = 0.32\nsamples = 3\nvalue = [4, 1, 0, 0]\nclass = outros", fillcolor="#eca06a"] ;
706 -> 707 ;
708 [label="gini = 0.0\nsamples = 2\nvalue = [4, 0, 0, 0]\nclass = outros", fillcolor="#e58139"] ;
707 -> 708 ;
709 [label="gini = 0.0\nsamples = 1\nvalue = [0, 1, 0, 0]\nclass = decisao", fillcolor="#47e539"] ;
707 -> 709 ;
710 [label="gini = 0.0\nsamples = 1\nvalue = [2, 0, 0, 0]\nclass = outros", fillcolor="#e58139"] ;
706 -> 710 ;
711 [label="eventuais <= 1.0\ngini = 0.38\nsamples = 3\nvalue = [3, 1, 0, 0]\nclass = outros", fillcolor="#eeab7b"] ;
11 -> 711 ;
712 [label="gini = 0.0\nsamples = 2\nvalue = [3, 0, 0, 0]\nclass = outros", fillcolor="#e58139"] ;
711 -> 712 ;
713 [label="gini = 0.0\nsamples = 1\nvalue = [0, 1, 0, 0]\nclass = decisao", fillcolor="#47e539"] ;
711 -> 713 ;
714 [label="setembro <= 0.5\ngini = 0.22\nsamples = 950\nvalue = [22, 1278, 89, 65]\nclass = decisao", fillcolor="#5fe853"] ;
10 -> 714 ;
715 [label="ester <= 0.5\ngini = 0.21\nsamples = 948\nvalue = [22, 1278, 89, 58]\nclass = decisao", fillcolor="#5ee852"] ;
714 -> 715 ;
716 [label="redesignada <= 0.5\ngini = 0.21\nsamples = 945\nvalue = [19, 1275, 89, 58]\nclass = decisao", fillcolor="#5ee851"] ;
715 -> 716 ;
717 [label="edneia <= 0.5\ngini = 0.21\nsamples = 941\nvalue = [19, 1275, 89, 52]\nclass = decisao", fillcolor="#5de851"] ;
716 -> 717 ;
718 [label="saibercentro <= 0.5\ngini = 0.2\nsamples = 940\nvalue = [19, 1275, 86, 52]\nclass = decisao", fillcolor="#5ce850"] ;
717 -> 718 ;
719 [label="(...)", fillcolor="#C0C0C0"] ;
718 -> 719 ;
1182 [label="(...)", fillcolor="#C0C0C0"] ;
718 -> 1182 ;
1183 [label="gini = 0.0\nsamples = 1\nvalue = [0, 0, 3, 0]\nclass = sentença", fillcolor="#399de5"] ;
717 -> 1183 ;
1184 [label="gini = 0.0\nsamples = 4\nvalue = [0, 0, 0, 6]\nclass = audiencia", fillcolor="#d739e5"] ;
716 -> 1184 ;
1185 [label="dias <= 0.5\ngini = 0.5\nsamples = 3\nvalue = [3, 3, 0, 0]\nclass = outros", fillcolor="#ffffff"] ;
715 -> 1185 ;
1186 [label="gini = 0.0\nsamples = 2\nvalue = [0, 3, 0, 0]\nclass = decisao", fillcolor="#47e539"] ;
1185 -> 1186 ;
1187 [label="gini = 0.0\nsamples = 1\nvalue = [3, 0, 0, 0]\nclass = outros", fillcolor="#e58139"] ;
1185 -> 1187 ;
1188 [label="gini = 0.0\nsamples = 2\nvalue = [0, 0, 0, 7]\nclass = audiencia", fillcolor="#d739e5"] ;
714 -> 1188 ;
1189 [label="acordo <= 1.0\ngini = 0.24\nsamples = 3\nvalue = [6, 1, 0, 0]\nclass = outros", fillcolor="#e9965a"] ;
9 -> 1189 ;
1190 [label="gini = 0.0\nsamples = 2\nvalue = [6, 0, 0, 0]\nclass = outros", fillcolor="#e58139"] ;
1189 -> 1190 ;
1191 [label="gini = 0.0\nsamples = 1\nvalue = [0, 1, 0, 0]\nclass = decisao", fillcolor="#47e539"] ;
1189 -> 1191 ;
1192 [label="jaime <= 0.5\ngini = 0.51\nsamples = 122\nvalue = [17, 51, 119, 0]\nclass = sentença", fillcolor="#9ccef2"] ;
8 -> 1192 ;
1193 [label="daniela <= 1.5\ngini = 0.51\nsamples = 121\nvalue = [17, 48, 119, 0]\nclass = sentença", fillcolor="#98ccf1"] ;
1192 -> 1193 ;
1194 [label="data <= 2.5\ngini = 0.5\nsamples = 120\nvalue = [16, 48, 119, 0]\nclass = sentença", fillcolor="#97cbf1"] ;
1193 -> 1194 ;
1195 [label="igp-m/fgv <= 0.5\ngini = 0.53\nsamples = 108\nvalue = [16, 48, 103, 0]\nclass = sentença", fillcolor="#a3d2f3"] ;
1194 -> 1195 ;
1196 [label="acostados <= 0.5\ngini = 0.52\nsamples = 107\nvalue = [14, 48, 103, 0]\nclass = sentença", fillcolor="#a2d1f3"] ;
1195 -> 1196 ;
1197 [label="caramuru <= 0.5\ngini = 0.51\nsamples = 106\nvalue = [14, 43, 103, 0]\nclass = sentença", fillcolor="#99cdf2"] ;
1196 -> 1197 ;
1198 [label="juntar <= 0.5\ngini = 0.5\nsamples = 105\nvalue = [14, 41, 103, 0]\nclass = sentença", fillcolor="#96cbf1"] ;
1197 -> 1198 ;
1199 [label="(...)", fillcolor="#C0C0C0"] ;
1198 -> 1199 ;
1308 [label="(...)", fillcolor="#C0C0C0"] ;
1198 -> 1308 ;
1309 [label="gini = 0.0\nsamples = 1\nvalue = [0, 2, 0, 0]\nclass = decisao", fillcolor="#47e539"] ;
1197 -> 1309 ;
1310 [label="gini = 0.0\nsamples = 1\nvalue = [0, 5, 0, 0]\nclass = decisao", fillcolor="#47e539"] ;
1196 -> 1310 ;
1311 [label="gini = 0.0\nsamples = 1\nvalue = [2, 0, 0, 0]\nclass = outros", fillcolor="#e58139"] ;
1195 -> 1311 ;
1312 [label="gini = 0.0\nsamples = 12\nvalue = [0, 0, 16, 0]\nclass = sentença", fillcolor="#399de5"] ;
1194 -> 1312 ;
1313 [label="gini = 0.0\nsamples = 1\nvalue = [1, 0, 0, 0]\nclass = outros", fillcolor="#e58139"] ;
1193 -> 1313 ;
1314 [label="gini = 0.0\nsamples = 1\nvalue = [0, 3, 0, 0]\nclass = decisao", fillcolor="#47e539"] ;
1192 -> 1314 ;
1315 [label="gini = 0.0\nsamples = 1\nvalue = [3, 0, 0, 0]\nclass = outros", fillcolor="#e58139"] ;
7 -> 1315 ;
1316 [label="gini = 0.0\nsamples = 2\nvalue = [3, 0, 0, 0]\nclass = outros", fillcolor="#e58139"] ;
6 -> 1316 ;
1317 [label="devidamente <= 0.5\ngini = 0.53\nsamples = 97\nvalue = [4, 75, 75, 1]\nclass = decisao", fillcolor="#ffffff"] ;
5 -> 1317 ;
1318 [label="respectivo <= 0.5\ngini = 0.52\nsamples = 86\nvalue = [4, 73, 63, 0]\nclass = decisao", fillcolor="#e7fce5"] ;
1317 -> 1318 ;
1319 [label="porto <= 0.5\ngini = 0.52\nsamples = 83\nvalue = [4, 73, 58, 0]\nclass = decisao", fillcolor="#dbfad8"] ;
1318 -> 1319 ;
1320 [label="prejuizo <= 0.5\ngini = 0.53\nsamples = 80\nvalue = [4, 69, 58, 0]\nclass = decisao", fillcolor="#e3fbe1"] ;
1319 -> 1320 ;
1321 [label="art <= 0.5\ngini = 0.53\nsamples = 78\nvalue = [4, 62, 58, 0]\nclass = decisao", fillcolor="#f4fdf3"] ;
1320 -> 1321 ;
1322 [label="condenou <= 0.5\ngini = 0.52\nsamples = 57\nvalue = [3, 53, 38, 0]\nclass = decisao", fillcolor="#cef8ca"] ;
1321 -> 1322 ;
1323 [label="adv <= 0.5\ngini = 0.52\nsamples = 55\nvalue = [3, 50, 38, 0]\nclass = decisao", fillcolor="#d5f9d2"] ;
1322 -> 1323 ;
1324 [label="drs <= 0.5\ngini = 0.46\nsamples = 13\nvalue = [3, 12, 2, 0]\nclass = decisao", fillcolor="#89ee80"] ;
1323 -> 1324 ;
1325 [label="justiça <= 0.5\ngini = 0.34\nsamples = 11\nvalue = [3, 11, 0, 0]\nclass = decisao", fillcolor="#79ec6f"] ;
1324 -> 1325 ;
1326 [label="etc <= 0.5\ngini = 0.47\nsamples = 7\nvalue = [3, 5, 0, 0]\nclass = decisao", fillcolor="#b5f5b0"] ;
1325 -> 1326 ;
1327 [label="(...)", fillcolor="#C0C0C0"] ;
1326 -> 1327 ;
1336 [label="(...)", fillcolor="#C0C0C0"] ;
1326 -> 1336 ;
1337 [label="gini = 0.0\nsamples = 4\nvalue = [0, 6, 0, 0]\nclass = decisao", fillcolor="#47e539"] ;
1325 -> 1337 ;
1338 [label="acordo <= 1.0\ngini = 0.44\nsamples = 2\nvalue = [0, 1, 2, 0]\nclass = sentença", fillcolor="#9ccef2"] ;
1324 -> 1338 ;
1339 [label="gini = 0.0\nsamples = 1\nvalue = [0, 0, 2, 0]\nclass = sentença", fillcolor="#399de5"] ;
1338 -> 1339 ;
1340 [label="gini = 0.0\nsamples = 1\nvalue = [0, 1, 0, 0]\nclass = decisao", fillcolor="#47e539"] ;
1338 -> 1340 ;
1341 [label="ainda <= 0.5\ngini = 0.5\nsamples = 42\nvalue = [0, 38, 36, 0]\nclass = decisao", fillcolor="#f5fef5"] ;
1323 -> 1341 ;
1342 [label="baixa <= 0.5\ngini = 0.49\nsamples = 37\nvalue = [0, 37, 29, 0]\nclass = decisao", fillcolor="#d7f9d4"] ;
1341 -> 1342 ;
1343 [label="magazine <= 0.5\ngini = 0.49\nsamples = 36\nvalue = [0, 37, 28, 0]\nclass = decisao", fillcolor="#d2f9cf"] ;
1342 -> 1343 ;
1344 [label="(...)", fillcolor="#C0C0C0"] ;
1343 -> 1344 ;
1381 [label="(...)", fillcolor="#C0C0C0"] ;
1343 -> 1381 ;
1382 [label="gini = 0.0\nsamples = 1\nvalue = [0, 0, 1, 0]\nclass = sentença", fillcolor="#399de5"] ;
1342 -> 1382 ;
1383 [label="solicitei <= 1.0\ngini = 0.22\nsamples = 5\nvalue = [0, 1, 7, 0]\nclass = sentença", fillcolor="#55abe9"] ;
1341 -> 1383 ;
1384 [label="gini = 0.0\nsamples = 4\nvalue = [0, 0, 7, 0]\nclass = sentença", fillcolor="#399de5"] ;
1383 -> 1384 ;
1385 [label="gini = 0.0\nsamples = 1\nvalue = [0, 1, 0, 0]\nclass = decisao", fillcolor="#47e539"] ;
1383 -> 1385 ;
1386 [label="gini = 0.0\nsamples = 2\nvalue = [0, 3, 0, 0]\nclass = decisao", fillcolor="#47e539"] ;
1322 -> 1386 ;
1387 [label="exposto <= 0.5\ngini = 0.46\nsamples = 21\nvalue = [1, 9, 20, 0]\nclass = sentença", fillcolor="#97ccf1"] ;
1321 -> 1387 ;
1388 [label="penhora <= 0.5\ngini = 0.54\nsamples = 15\nvalue = [1, 9, 11, 0]\nclass = sentença", fillcolor="#deeffb"] ;
1387 -> 1388 ;
1389 [label="meriti <= 1.0\ngini = 0.49\nsamples = 13\nvalue = [0, 8, 11, 0]\nclass = sentença", fillcolor="#c9e4f8"] ;
1388 -> 1389 ;
1390 [label="servicos <= 0.5\ngini = 0.5\nsamples = 12\nvalue = [0, 8, 7, 0]\nclass = decisao", fillcolor="#e8fce6"] ;
1389 -> 1390 ;
1391 [label="pagar <= 0.5\ngini = 0.5\nsamples = 10\nvalue = [0, 6, 7, 0]\nclass = sentença", fillcolor="#e3f1fb"] ;
1390 -> 1391 ;
1392 [label="(...)", fillcolor="#C0C0C0"] ;
1391 -> 1392 ;
1405 [label="(...)", fillcolor="#C0C0C0"] ;
1391 -> 1405 ;
1406 [label="gini = 0.0\nsamples = 2\nvalue = [0, 2, 0, 0]\nclass = decisao", fillcolor="#47e539"] ;
1390 -> 1406 ;
1407 [label="gini = 0.0\nsamples = 1\nvalue = [0, 0, 4, 0]\nclass = sentença", fillcolor="#399de5"] ;
1389 -> 1407 ;
1408 [label="defeito <= 0.5\ngini = 0.5\nsamples = 2\nvalue = [1, 1, 0, 0]\nclass = outros", fillcolor="#ffffff"] ;
1388 -> 1408 ;
1409 [label="gini = 0.0\nsamples = 1\nvalue = [0, 1, 0, 0]\nclass = decisao", fillcolor="#47e539"] ;
1408 -> 1409 ;
1410 [label="gini = 0.0\nsamples = 1\nvalue = [1, 0, 0, 0]\nclass = outros", fillcolor="#e58139"] ;
1408 -> 1410 ;
1411 [label="gini = 0.0\nsamples = 6\nvalue = [0, 0, 9, 0]\nclass = sentença", fillcolor="#399de5"] ;
1387 -> 1411 ;
1412 [label="gini = 0.0\nsamples = 2\nvalue = [0, 7, 0, 0]\nclass = decisao", fillcolor="#47e539"] ;
1320 -> 1412 ;
1413 [label="gini = 0.0\nsamples = 3\nvalue = [0, 4, 0, 0]\nclass = decisao", fillcolor="#47e539"] ;
1319 -> 1413 ;
1414 [label="gini = 0.0\nsamples = 3\nvalue = [0, 0, 5, 0]\nclass = sentença", fillcolor="#399de5"] ;
1318 -> 1414 ;
1415 [label="pago <= 0.5\ngini = 0.34\nsamples = 11\nvalue = [0, 2, 12, 1]\nclass = sentença", fillcolor="#67b4eb"] ;
1317 -> 1415 ;
1416 [label="acordao <= 0.5\ngini = 0.57\nsamples = 7\nvalue = [0, 2, 4, 1]\nclass = sentença", fillcolor="#b0d8f5"] ;
1415 -> 1416 ;
1417 [label="rn <= 0.5\ngini = 0.5\nsamples = 6\nvalue = [0, 1, 4, 1]\nclass = sentença", fillcolor="#88c4ef"] ;
1416 -> 1417 ;
1418 [label="referida <= 0.5\ngini = 0.32\nsamples = 5\nvalue = [0, 1, 4, 0]\nclass = sentença", fillcolor="#6ab6ec"] ;
1417 -> 1418 ;
1419 [label="gini = 0.0\nsamples = 4\nvalue = [0, 0, 4, 0]\nclass = sentença", fillcolor="#399de5"] ;
1418 -> 1419 ;
1420 [label="gini = 0.0\nsamples = 1\nvalue = [0, 1, 0, 0]\nclass = decisao", fillcolor="#47e539"] ;
1418 -> 1420 ;
1421 [label="gini = 0.0\nsamples = 1\nvalue = [0, 0, 0, 1]\nclass = audiencia", fillcolor="#d739e5"] ;
1417 -> 1421 ;
1422 [label="gini = 0.0\nsamples = 1\nvalue = [0, 1, 0, 0]\nclass = decisao", fillcolor="#47e539"] ;
1416 -> 1422 ;
1423 [label="gini = 0.0\nsamples = 4\nvalue = [0, 0, 8, 0]\nclass = sentença", fillcolor="#399de5"] ;
1415 -> 1423 ;
1424 [label="franca <= 0.5\ngini = 0.51\nsamples = 21\nvalue = [2, 11, 21, 0]\nclass = sentença", fillcolor="#a9d4f4"] ;
4 -> 1424 ;
1425 [label="destruicao <= 0.5\ngini = 0.5\nsamples = 20\nvalue = [2, 10, 21, 0]\nclass = sentença", fillcolor="#a0d0f3"] ;
1424 -> 1425 ;
1426 [label="localizado <= 0.5\ngini = 0.45\nsamples = 19\nvalue = [2, 7, 21, 0]\nclass = sentença", fillcolor="#86c3ef"] ;
1425 -> 1426 ;
1427 [label="dias <= 0.5\ngini = 0.37\nsamples = 16\nvalue = [2, 4, 21, 0]\nclass = sentença", fillcolor="#6db7ec"] ;
1426 -> 1427 ;
1428 [label="satisfez <= 0.5\ngini = 0.38\nsamples = 3\nvalue = [0, 3, 1, 0]\nclass = decisao", fillcolor="#84ee7b"] ;
1427 -> 1428 ;
1429 [label="reveilleau <= 0.5\ngini = 0.44\nsamples = 2\nvalue = [0, 2, 1, 0]\nclass = decisao", fillcolor="#a3f29c"] ;
1428 -> 1429 ;
1430 [label="gini = 0.0\nsamples = 1\nvalue = [0, 0, 1, 0]\nclass = sentença", fillcolor="#399de5"] ;
1429 -> 1430 ;
1431 [label="gini = 0.0\nsamples = 1\nvalue = [0, 2, 0, 0]\nclass = decisao", fillcolor="#47e539"] ;
1429 -> 1431 ;
1432 [label="gini = 0.0\nsamples = 1\nvalue = [0, 1, 0, 0]\nclass = decisao", fillcolor="#47e539"] ;
1428 -> 1432 ;
1433 [label="referente <= 0.5\ngini = 0.23\nsamples = 13\nvalue = [2, 1, 20, 0]\nclass = sentença", fillcolor="#55abe9"] ;
1427 -> 1433 ;
1434 [label="remetam-se <= 0.5\ngini = 0.24\nsamples = 12\nvalue = [2, 1, 19, 0]\nclass = sentença", fillcolor="#57ace9"] ;
1433 -> 1434 ;
1435 [label="devolucao <= 0.5\ngini = 0.09\nsamples = 11\nvalue = [0, 1, 19, 0]\nclass = sentença", fillcolor="#43a2e6"] ;
1434 -> 1435 ;
1436 [label="celebracao <= 0.5\ngini = 0.15\nsamples = 8\nvalue = [0, 1, 11, 0]\nclass = sentença", fillcolor="#4ba6e7"] ;
1435 -> 1436 ;
1437 [label="fica <= 0.5\ngini = 0.18\nsamples = 7\nvalue = [0, 1, 9, 0]\nclass = sentença", fillcolor="#4fa8e8"] ;
1436 -> 1437 ;
1438 [label="gini = 0.0\nsamples = 6\nvalue = [0, 0, 9, 0]\nclass = sentença", fillcolor="#399de5"] ;
1437 -> 1438 ;
1439 [label="gini = 0.0\nsamples = 1\nvalue = [0, 1, 0, 0]\nclass = decisao", fillcolor="#47e539"] ;
1437 -> 1439 ;
1440 [label="gini = 0.0\nsamples = 1\nvalue = [0, 0, 2, 0]\nclass = sentença", fillcolor="#399de5"] ;
1436 -> 1440 ;
1441 [label="gini = 0.0\nsamples = 3\nvalue = [0, 0, 8, 0]\nclass = sentença", fillcolor="#399de5"] ;
1435 -> 1441 ;
1442 [label="gini = 0.0\nsamples = 1\nvalue = [2, 0, 0, 0]\nclass = outros", fillcolor="#e58139"] ;
1434 -> 1442 ;
1443 [label="gini = 0.0\nsamples = 1\nvalue = [0, 0, 1, 0]\nclass = sentença", fillcolor="#399de5"] ;
1433 -> 1443 ;
1444 [label="gini = 0.0\nsamples = 3\nvalue = [0, 3, 0, 0]\nclass = decisao", fillcolor="#47e539"] ;
1426 -> 1444 ;
1445 [label="gini = 0.0\nsamples = 1\nvalue = [0, 3, 0, 0]\nclass = decisao", fillcolor="#47e539"] ;
1425 -> 1445 ;
1446 [label="gini = 0.0\nsamples = 1\nvalue = [0, 1, 0, 0]\nclass = decisao", fillcolor="#47e539"] ;
1424 -> 1446 ;
1447 [label="suprir <= 0.5\ngini = 0.51\nsamples = 137\nvalue = [13, 62, 131, 1]\nclass = sentença", fillcolor="#a1d0f3"] ;
3 -> 1447 ;
1448 [label="prevista <= 0.5\ngini = 0.5\nsamples = 136\nvalue = [13, 59, 131, 1]\nclass = sentença", fillcolor="#9dcef2"] ;
1447 -> 1448 ;
1449 [label="de-se <= 0.5\ngini = 0.49\nsamples = 134\nvalue = [13, 55, 131, 1]\nclass = sentença", fillcolor="#97ccf1"] ;
1448 -> 1449 ;
1450 [label="comarca <= 1.5\ngini = 0.55\nsamples = 90\nvalue = [11, 42, 75, 1]\nclass = sentença", fillcolor="#b4daf5"] ;
1449 -> 1450 ;
1451 [label="acabou <= 0.5\ngini = 0.54\nsamples = 89\nvalue = [11, 39, 75, 1]\nclass = sentença", fillcolor="#add6f4"] ;
1450 -> 1451 ;
1452 [label="oferecida <= 0.5\ngini = 0.54\nsamples = 88\nvalue = [11, 37, 75, 1]\nclass = sentença", fillcolor="#a9d4f4"] ;
1451 -> 1452 ;
1453 [label="exata <= 0.5\ngini = 0.53\nsamples = 87\nvalue = [11, 34, 75, 1]\nclass = sentença", fillcolor="#a2d1f3"] ;
1452 -> 1453 ;
1454 [label="intimacoes <= 0.5\ngini = 0.52\nsamples = 86\nvalue = [10, 34, 75, 1]\nclass = sentença", fillcolor="#a1d0f3"] ;
1453 -> 1454 ;
1455 [label="oab <= 2.5\ngini = 0.53\nsamples = 83\nvalue = [10, 34, 71, 1]\nclass = sentença", fillcolor="#a6d3f3"] ;
1454 -> 1455 ;
1456 [label="tabela <= 0.5\ngini = 0.56\nsamples = 76\nvalue = [10, 33, 60, 1]\nclass = sentença", fillcolor="#b4daf5"] ;
1455 -> 1456 ;
1457 [label="obscuridade <= 0.5\ngini = 0.54\nsamples = 73\nvalue = [9, 30, 60, 1]\nclass = sentença", fillcolor="#aad5f4"] ;
1456 -> 1457 ;
1458 [label="custas <= 0.5\ngini = 0.53\nsamples = 71\nvalue = [9, 27, 60, 1]\nclass = sentença", fillcolor="#a2d1f3"] ;
1457 -> 1458 ;
1459 [label="(...)", fillcolor="#C0C0C0"] ;
1458 -> 1459 ;
1512 [label="(...)", fillcolor="#C0C0C0"] ;
1458 -> 1512 ;
1539 [label="gini = 0.0\nsamples = 2\nvalue = [0, 3, 0, 0]\nclass = decisao", fillcolor="#47e539"] ;
1457 -> 1539 ;
1540 [label="atentem <= 0.5\ngini = 0.38\nsamples = 3\nvalue = [1, 3, 0, 0]\nclass = decisao", fillcolor="#84ee7b"] ;
1456 -> 1540 ;
1541 [label="gini = 0.0\nsamples = 2\nvalue = [0, 3, 0, 0]\nclass = decisao", fillcolor="#47e539"] ;
1540 -> 1541 ;
1542 [label="gini = 0.0\nsamples = 1\nvalue = [1, 0, 0, 0]\nclass = outros", fillcolor="#e58139"] ;
1540 -> 1542 ;
1543 [label="processo <= 1.5\ngini = 0.15\nsamples = 7\nvalue = [0, 1, 11, 0]\nclass = sentença", fillcolor="#4ba6e7"] ;
1455 -> 1543 ;
1544 [label="obrigacao <= 1.0\ngini = 0.2\nsamples = 5\nvalue = [0, 1, 8, 0]\nclass = sentença", fillcolor="#52a9e8"] ;
1543 -> 1544 ;
1545 [label="pois <= 0.5\ngini = 0.28\nsamples = 4\nvalue = [0, 1, 5, 0]\nclass = sentença", fillcolor="#61b1ea"] ;
1544 -> 1545 ;
1546 [label="(...)", fillcolor="#C0C0C0"] ;
1545 -> 1546 ;
1549 [label="(...)", fillcolor="#C0C0C0"] ;
1545 -> 1549 ;
1550 [label="gini = 0.0\nsamples = 1\nvalue = [0, 0, 3, 0]\nclass = sentença", fillcolor="#399de5"] ;
1544 -> 1550 ;
1551 [label="gini = 0.0\nsamples = 2\nvalue = [0, 0, 3, 0]\nclass = sentença", fillcolor="#399de5"] ;
1543 -> 1551 ;
1552 [label="gini = 0.0\nsamples = 3\nvalue = [0, 0, 4, 0]\nclass = sentença", fillcolor="#399de5"] ;
1454 -> 1552 ;
1553 [label="gini = 0.0\nsamples = 1\nvalue = [1, 0, 0, 0]\nclass = outros", fillcolor="#e58139"] ;
1453 -> 1553 ;
1554 [label="gini = 0.0\nsamples = 1\nvalue = [0, 3, 0, 0]\nclass = decisao", fillcolor="#47e539"] ;
1452 -> 1554 ;
1555 [label="gini = 0.0\nsamples = 1\nvalue = [0, 2, 0, 0]\nclass = decisao", fillcolor="#47e539"] ;
1451 -> 1555 ;
1556 [label="gini = 0.0\nsamples = 1\nvalue = [0, 3, 0, 0]\nclass = decisao", fillcolor="#47e539"] ;
1450 -> 1556 ;
1557 [label="arias <= 0.5\ngini = 0.34\nsamples = 44\nvalue = [2, 13, 56, 0]\nclass = sentença", fillcolor="#6cb6ec"] ;
1449 -> 1557 ;
1558 [label="enunciados <= 0.5\ngini = 0.32\nsamples = 43\nvalue = [2, 11, 56, 0]\nclass = sentença", fillcolor="#65b3eb"] ;
1557 -> 1558 ;
1559 [label="integral <= 0.5\ngini = 0.3\nsamples = 42\nvalue = [2, 10, 56, 0]\nclass = sentença", fillcolor="#62b1ea"] ;
1558 -> 1559 ;
1560 [label="extinto <= 0.5\ngini = 0.28\nsamples = 41\nvalue = [1, 10, 56, 0]\nclass = sentença", fillcolor="#5fb0ea"] ;
1559 -> 1560 ;
1561 [label="gini = 0.0\nsamples = 5\nvalue = [0, 0, 8, 0]\nclass = sentença", fillcolor="#399de5"] ;
1560 -> 1561 ;
1562 [label="p.r.i <= 0.5\ngini = 0.31\nsamples = 36\nvalue = [1, 10, 48, 0]\nclass = sentença", fillcolor="#65b3eb"] ;
1560 -> 1562 ;
1563 [label="cpc.se <= 0.5\ngini = 0.24\nsamples = 27\nvalue = [0, 6, 38, 0]\nclass = sentença", fillcolor="#58ace9"] ;
1562 -> 1563 ;
1564 [label="rogerio <= 0.5\ngini = 0.24\nsamples = 25\nvalue = [0, 6, 36, 0]\nclass = sentença", fillcolor="#5aade9"] ;
1563 -> 1564 ;
1565 [label="benvindo <= 0.5\ngini = 0.21\nsamples = 24\nvalue = [0, 5, 36, 0]\nclass = sentença", fillcolor="#54abe9"] ;
1564 -> 1565 ;
1566 [label="ltda <= 0.5\ngini = 0.22\nsamples = 23\nvalue = [0, 5, 34, 0]\nclass = sentença", fillcolor="#56abe9"] ;
1565 -> 1566 ;
1567 [label="(...)", fillcolor="#C0C0C0"] ;
1566 -> 1567 ;
1578 [label="(...)", fillcolor="#C0C0C0"] ;
1566 -> 1578 ;
1593 [label="gini = 0.0\nsamples = 1\nvalue = [0, 0, 2, 0]\nclass = sentença", fillcolor="#399de5"] ;
1565 -> 1593 ;
1594 [label="gini = 0.0\nsamples = 1\nvalue = [0, 1, 0, 0]\nclass = decisao", fillcolor="#47e539"] ;
1564 -> 1594 ;
1595 [label="gini = 0.0\nsamples = 2\nvalue = [0, 0, 2, 0]\nclass = sentença", fillcolor="#399de5"] ;
1563 -> 1595 ;
1596 [label="celular <= 0.5\ngini = 0.48\nsamples = 9\nvalue = [1, 4, 10, 0]\nclass = sentença", fillcolor="#93caf1"] ;
1562 -> 1596 ;
1597 [label="janeiro <= 0.5\ngini = 0.44\nsamples = 7\nvalue = [0, 4, 8, 0]\nclass = sentença", fillcolor="#9ccef2"] ;
1596 -> 1597 ;
1598 [label="n <= 0.5\ngini = 0.38\nsamples = 5\nvalue = [0, 2, 6, 0]\nclass = sentença", fillcolor="#7bbeee"] ;
1597 -> 1598 ;
1599 [label="diã¡rio <= 0.5\ngini = 0.41\nsamples = 4\nvalue = [0, 2, 5, 0]\nclass = sentença", fillcolor="#88c4ef"] ;
1598 -> 1599 ;
1600 [label="(...)", fillcolor="#C0C0C0"] ;
1599 -> 1600 ;
1601 [label="(...)", fillcolor="#C0C0C0"] ;
1599 -> 1601 ;
1604 [label="gini = 0.0\nsamples = 1\nvalue = [0, 0, 1, 0]\nclass = sentença", fillcolor="#399de5"] ;
1598 -> 1604 ;
1605 [label="formalidades <= 0.5\ngini = 0.5\nsamples = 2\nvalue = [0, 2, 2, 0]\nclass = decisao", fillcolor="#ffffff"] ;
1597 -> 1605 ;
1606 [label="gini = 0.0\nsamples = 1\nvalue = [0, 2, 0, 0]\nclass = decisao", fillcolor="#47e539"] ;
1605 -> 1606 ;
1607 [label="gini = 0.0\nsamples = 1\nvalue = [0, 0, 2, 0]\nclass = sentença", fillcolor="#399de5"] ;
1605 -> 1607 ;
1608 [label="transito <= 0.5\ngini = 0.44\nsamples = 2\nvalue = [1, 0, 2, 0]\nclass = sentença", fillcolor="#9ccef2"] ;
1596 -> 1608 ;
1609 [label="gini = 0.0\nsamples = 1\nvalue = [0, 0, 2, 0]\nclass = sentença", fillcolor="#399de5"] ;
1608 -> 1609 ;
1610 [label="gini = 0.0\nsamples = 1\nvalue = [1, 0, 0, 0]\nclass = outros", fillcolor="#e58139"] ;
1608 -> 1610 ;
1611 [label="gini = 0.0\nsamples = 1\nvalue = [1, 0, 0, 0]\nclass = outros", fillcolor="#e58139"] ;
1559 -> 1611 ;
1612 [label="gini = 0.0\nsamples = 1\nvalue = [0, 1, 0, 0]\nclass = decisao", fillcolor="#47e539"] ;
1558 -> 1612 ;
1613 [label="gini = 0.0\nsamples = 1\nvalue = [0, 2, 0, 0]\nclass = decisao", fillcolor="#47e539"] ;
1557 -> 1613 ;
1614 [label="gini = 0.0\nsamples = 2\nvalue = [0, 4, 0, 0]\nclass = decisao", fillcolor="#47e539"] ;
1448 -> 1614 ;
1615 [label="gini = 0.0\nsamples = 1\nvalue = [0, 3, 0, 0]\nclass = decisao", fillcolor="#47e539"] ;
1447 -> 1615 ;
1616 [label="aparelho <= 2.5\ngini = 0.31\nsamples = 576\nvalue = [11, 106, 56, 812]\nclass = audiencia", fillcolor="#df60ea"] ;
2 -> 1616 ;
1617 [label="existe <= 1.0\ngini = 0.3\nsamples = 574\nvalue = [11, 106, 50, 812]\nclass = audiencia", fillcolor="#df5fea"] ;
1616 -> 1617 ;
1618 [label="manifeste-se <= 0.5\ngini = 0.29\nsamples = 573\nvalue = [8, 106, 50, 812]\nclass = audiencia", fillcolor="#df5eea"] ;
1617 -> 1618 ;
1619 [label="cancelada <= 0.5\ngini = 0.29\nsamples = 571\nvalue = [8, 102, 50, 812]\nclass = audiencia", fillcolor="#de5dea"] ;
1618 -> 1619 ;
1620 [label="transito <= 0.5\ngini = 0.28\nsamples = 566\nvalue = [8, 101, 44, 810]\nclass = audiencia", fillcolor="#de5cea"] ;
1619 -> 1620 ;
1621 [label="custas <= 0.5\ngini = 0.26\nsamples = 556\nvalue = [5, 98, 36, 809]\nclass = audiencia", fillcolor="#de59e9"] ;
1620 -> 1621 ;
1622 [label="digam <= 0.5\ngini = 0.22\nsamples = 536\nvalue = [5, 91, 17, 802]\nclass = audiencia", fillcolor="#dc54e9"] ;
1621 -> 1622 ;
1623 [label="ivanaldo <= 1.0\ngini = 0.2\nsamples = 531\nvalue = [4, 81, 17, 802]\nclass = audiencia", fillcolor="#dc52e8"] ;
1622 -> 1623 ;
1624 [label="conjunto <= 0.5\ngini = 0.2\nsamples = 530\nvalue = [4, 80, 17, 802]\nclass = audiencia", fillcolor="#dc51e8"] ;
1623 -> 1624 ;
1625 [label="lancamento <= 0.5\ngini = 0.2\nsamples = 529\nvalue = [4, 80, 15, 802]\nclass = audiencia", fillcolor="#dc51e8"] ;
1624 -> 1625 ;
1626 [label="eventualmente <= 0.5\ngini = 0.2\nsamples = 528\nvalue = [4, 78, 15, 802]\nclass = audiencia", fillcolor="#dc50e8"] ;
1625 -> 1626 ;
1627 [label="transacao <= 0.5\ngini = 0.19\nsamples = 527\nvalue = [4, 75, 15, 802]\nclass = audiencia", fillcolor="#dc50e8"] ;
1626 -> 1627 ;
1628 [label="procedidas <= 0.5\ngini = 0.19\nsamples = 524\nvalue = [4, 71, 15, 800]\nclass = audiencia", fillcolor="#db4fe8"] ;
1627 -> 1628 ;
1629 [label="(...)", fillcolor="#C0C0C0"] ;
1628 -> 1629 ;
1852 [label="(...)", fillcolor="#C0C0C0"] ;
1628 -> 1852 ;
1855 [label="gerais <= 0.5\ngini = 0.44\nsamples = 3\nvalue = [0, 4, 0, 2]\nclass = decisao", fillcolor="#a3f29c"] ;
1627 -> 1855 ;
1856 [label="(...)", fillcolor="#C0C0C0"] ;
1855 -> 1856 ;
1859 [label="(...)", fillcolor="#C0C0C0"] ;
1855 -> 1859 ;
1860 [label="gini = 0.0\nsamples = 1\nvalue = [0, 3, 0, 0]\nclass = decisao", fillcolor="#47e539"] ;
1626 -> 1860 ;
1861 [label="gini = 0.0\nsamples = 1\nvalue = [0, 2, 0, 0]\nclass = decisao", fillcolor="#47e539"] ;
1625 -> 1861 ;
1862 [label="gini = 0.0\nsamples = 1\nvalue = [0, 0, 2, 0]\nclass = sentença", fillcolor="#399de5"] ;
1624 -> 1862 ;
1863 [label="gini = 0.0\nsamples = 1\nvalue = [0, 1, 0, 0]\nclass = decisao", fillcolor="#47e539"] ;
1623 -> 1863 ;
1864 [label="serem <= 0.5\ngini = 0.17\nsamples = 5\nvalue = [1, 10, 0, 0]\nclass = decisao", fillcolor="#59e84d"] ;
1622 -> 1864 ;
1865 [label="gini = 0.0\nsamples = 3\nvalue = [0, 8, 0, 0]\nclass = decisao", fillcolor="#47e539"] ;
1864 -> 1865 ;
1866 [label="NUMBER <= 16.0\ngini = 0.44\nsamples = 2\nvalue = [1, 2, 0, 0]\nclass = decisao", fillcolor="#a3f29c"] ;
1864 -> 1866 ;
1867 [label="gini = 0.0\nsamples = 1\nvalue = [0, 2, 0, 0]\nclass = decisao", fillcolor="#47e539"] ;
1866 -> 1867 ;
1868 [label="gini = 0.0\nsamples = 1\nvalue = [1, 0, 0, 0]\nclass = outros", fillcolor="#e58139"] ;
1866 -> 1868 ;
1869 [label="patronos <= 0.5\ngini = 0.58\nsamples = 20\nvalue = [0, 7, 19, 7]\nclass = sentença", fillcolor="#a4d2f3"] ;
1621 -> 1869 ;
1870 [label="verifico <= 0.5\ngini = 0.53\nsamples = 18\nvalue = [0, 7, 19, 4]\nclass = sentença", fillcolor="#98ccf1"] ;
1869 -> 1870 ;
1871 [label="caso <= 0.5\ngini = 0.51\nsamples = 17\nvalue = [0, 6, 19, 4]\nclass = sentença", fillcolor="#8fc8f0"] ;
1870 -> 1871 ;
1872 [label="sob <= 1.5\ngini = 0.54\nsamples = 14\nvalue = [0, 6, 16, 4]\nclass = sentença", fillcolor="#9ccef2"] ;
1871 -> 1872 ;
1873 [label="oab <= 3.0\ngini = 0.52\nsamples = 13\nvalue = [0, 6, 16, 3]\nclass = sentença", fillcolor="#97cbf1"] ;
1872 -> 1873 ;
1874 [label="joana <= 0.5\ngini = 0.27\nsamples = 10\nvalue = [0, 0, 16, 3]\nclass = sentença", fillcolor="#5eafea"] ;
1873 -> 1874 ;
1875 [label="samsung <= 0.5\ngini = 0.2\nsamples = 9\nvalue = [0, 0, 16, 2]\nclass = sentença", fillcolor="#52a9e8"] ;
1874 -> 1875 ;
1876 [label="(...)", fillcolor="#C0C0C0"] ;
1875 -> 1876 ;
1881 [label="(...)", fillcolor="#C0C0C0"] ;
1875 -> 1881 ;
1882 [label="gini = 0.0\nsamples = 1\nvalue = [0, 0, 0, 1]\nclass = audiencia", fillcolor="#d739e5"] ;
1874 -> 1882 ;
1883 [label="gini = 0.0\nsamples = 3\nvalue = [0, 6, 0, 0]\nclass = decisao", fillcolor="#47e539"] ;
1873 -> 1883 ;
1884 [label="gini = 0.0\nsamples = 1\nvalue = [0, 0, 0, 1]\nclass = audiencia", fillcolor="#d739e5"] ;
1872 -> 1884 ;
1885 [label="gini = 0.0\nsamples = 3\nvalue = [0, 0, 3, 0]\nclass = sentença", fillcolor="#399de5"] ;
1871 -> 1885 ;
1886 [label="gini = 0.0\nsamples = 1\nvalue = [0, 1, 0, 0]\nclass = decisao", fillcolor="#47e539"] ;
1870 -> 1886 ;
1887 [label="gini = 0.0\nsamples = 2\nvalue = [0, 0, 0, 3]\nclass = audiencia", fillcolor="#d739e5"] ;
1869 -> 1887 ;
1888 [label="manifestacao <= 0.5\ngini = 0.63\nsamples = 10\nvalue = [3, 3, 8, 1]\nclass = sentença", fillcolor="#acd6f4"] ;
1620 -> 1888 ;
1889 [label="vieram <= 0.5\ngini = 0.56\nsamples = 9\nvalue = [1, 3, 8, 1]\nclass = sentença", fillcolor="#9ccef2"] ;
1888 -> 1889 ;
1890 [label="entendido <= 0.5\ngini = 0.51\nsamples = 8\nvalue = [1, 2, 8, 1]\nclass = sentença", fillcolor="#88c4ef"] ;
1889 -> 1890 ;
1891 [label="mes <= 1.5\ngini = 0.58\nsamples = 7\nvalue = [1, 2, 6, 1]\nclass = sentença", fillcolor="#9ccef2"] ;
1890 -> 1891 ;
1892 [label="ante <= 0.5\ngini = 0.49\nsamples = 6\nvalue = [0, 2, 6, 1]\nclass = sentença", fillcolor="#8ec7f0"] ;
1891 -> 1892 ;
1893 [label="carta <= 0.5\ngini = 0.53\nsamples = 5\nvalue = [0, 2, 5, 1]\nclass = sentença", fillcolor="#9ccef2"] ;
1892 -> 1893 ;
1894 [label="filardi <= 0.5\ngini = 0.41\nsamples = 4\nvalue = [0, 2, 5, 0]\nclass = sentença", fillcolor="#88c4ef"] ;
1893 -> 1894 ;
1895 [label="p.r.i. <= 0.5\ngini = 0.44\nsamples = 3\nvalue = [0, 2, 4, 0]\nclass = sentença", fillcolor="#9ccef2"] ;
1894 -> 1895 ;
1896 [label="(...)", fillcolor="#C0C0C0"] ;
1895 -> 1896 ;
1899 [label="(...)", fillcolor="#C0C0C0"] ;
1895 -> 1899 ;
1900 [label="gini = 0.0\nsamples = 1\nvalue = [0, 0, 1, 0]\nclass = sentença", fillcolor="#399de5"] ;
1894 -> 1900 ;
1901 [label="gini = 0.0\nsamples = 1\nvalue = [0, 0, 0, 1]\nclass = audiencia", fillcolor="#d739e5"] ;
1893 -> 1901 ;
1902 [label="gini = 0.0\nsamples = 1\nvalue = [0, 0, 1, 0]\nclass = sentença", fillcolor="#399de5"] ;
1892 -> 1902 ;
1903 [label="gini = 0.0\nsamples = 1\nvalue = [1, 0, 0, 0]\nclass = outros", fillcolor="#e58139"] ;
1891 -> 1903 ;
1904 [label="gini = 0.0\nsamples = 1\nvalue = [0, 0, 2, 0]\nclass = sentença", fillcolor="#399de5"] ;
1890 -> 1904 ;
1905 [label="gini = 0.0\nsamples = 1\nvalue = [0, 1, 0, 0]\nclass = decisao", fillcolor="#47e539"] ;
1889 -> 1905 ;
1906 [label="gini = 0.0\nsamples = 1\nvalue = [2, 0, 0, 0]\nclass = outros", fillcolor="#e58139"] ;
1888 -> 1906 ;
1907 [label="fe <= 0.5\ngini = 0.49\nsamples = 5\nvalue = [0, 1, 6, 2]\nclass = sentença", fillcolor="#8ec7f0"] ;
1619 -> 1907 ;
1908 [label="juizado <= 0.5\ngini = 0.24\nsamples = 4\nvalue = [0, 1, 6, 0]\nclass = sentença", fillcolor="#5aade9"] ;
1907 -> 1908 ;
1909 [label="soares <= 0.5\ngini = 0.5\nsamples = 2\nvalue = [0, 1, 1, 0]\nclass = decisao", fillcolor="#ffffff"] ;
1908 -> 1909 ;
1910 [label="gini = 0.0\nsamples = 1\nvalue = [0, 1, 0, 0]\nclass = decisao", fillcolor="#47e539"] ;
1909 -> 1910 ;
1911 [label="gini = 0.0\nsamples = 1\nvalue = [0, 0, 1, 0]\nclass = sentença", fillcolor="#399de5"] ;
1909 -> 1911 ;
1912 [label="gini = 0.0\nsamples = 2\nvalue = [0, 0, 5, 0]\nclass = sentença", fillcolor="#399de5"] ;
1908 -> 1912 ;
1913 [label="gini = 0.0\nsamples = 1\nvalue = [0, 0, 0, 2]\nclass = audiencia", fillcolor="#d739e5"] ;
1907 -> 1913 ;
1914 [label="gini = 0.0\nsamples = 2\nvalue = [0, 4, 0, 0]\nclass = decisao", fillcolor="#47e539"] ;
1618 -> 1914 ;
1915 [label="gini = 0.0\nsamples = 1\nvalue = [3, 0, 0, 0]\nclass = outros", fillcolor="#e58139"] ;
1617 -> 1915 ;
1916 [label="gini = 0.0\nsamples = 2\nvalue = [0, 0, 6, 0]\nclass = sentença", fillcolor="#399de5"] ;
1616 -> 1916 ;
1917 [label="exequente <= 0.5\ngini = 0.69\nsamples = 2181\nvalue = [521, 1596, 509, 857]\nclass = decisao", fillcolor="#cbf8c7"] ;
1 -> 1917 ;
1918 [label="partir <= 0.5\ngini = 0.69\nsamples = 2047\nvalue = [457, 1477, 478, 855]\nclass = decisao", fillcolor="#d0f8cc"] ;
1917 -> 1918 ;
1919 [label="s <= 1.5\ngini = 0.68\nsamples = 1985\nvalue = [432, 1445, 431, 854]\nclass = decisao", fillcolor="#d0f8cc"] ;
1918 -> 1919 ;
1920 [label="arquivamento <= 0.5\ngini = 0.7\nsamples = 1313\nvalue = [326, 889, 284, 581]\nclass = decisao", fillcolor="#d9fad6"] ;
1919 -> 1920 ;
1921 [label="homologo <= 0.5\ngini = 0.69\nsamples = 1265\nvalue = [307, 867, 250, 580]\nclass = decisao", fillcolor="#dafad7"] ;
1920 -> 1921 ;
1922 [label="cad <= 0.5\ngini = 0.67\nsamples = 1200\nvalue = [290, 866, 162, 577]\nclass = decisao", fillcolor="#d7f9d4"] ;
1921 -> 1922 ;
1923 [label="ii <= 0.5\ngini = 0.7\nsamples = 550\nvalue = [161, 318, 88, 292]\nclass = decisao", fillcolor="#f7fef6"] ;
1922 -> 1923 ;
1924 [label="merito <= 0.5\ngini = 0.69\nsamples = 510\nvalue = [124, 296, 86, 284]\nclass = decisao", fillcolor="#fbfefa"] ;
1923 -> 1924 ;
1925 [label="dias <= 0.5\ngini = 0.68\nsamples = 490\nvalue = [120, 292, 68, 281]\nclass = decisao", fillcolor="#fbfefa"] ;
1924 -> 1925 ;
1926 [label="falta <= 0.5\ngini = 0.68\nsamples = 384\nvalue = [82, 196, 62, 259]\nclass = audiencia", fillcolor="#f9e0fb"] ;
1925 -> 1926 ;
1927 [label="valor <= 0.5\ngini = 0.67\nsamples = 382\nvalue = [79, 196, 62, 259]\nclass = audiencia", fillcolor="#f9e0fb"] ;
1926 -> 1927 ;
1928 [label="excecao <= 0.5\ngini = 0.67\nsamples = 353\nvalue = [65, 182, 60, 250]\nclass = audiencia", fillcolor="#f8dbfa"] ;
1927 -> 1928 ;
1929 [label="extinto <= 0.5\ngini = 0.66\nsamples = 352\nvalue = [65, 182, 57, 250]\nclass = audiencia", fillcolor="#f8dbfa"] ;
1928 -> 1929 ;
1930 [label="gravataí <= 0.5\ngini = 0.65\nsamples = 339\nvalue = [56, 180, 51, 250]\nclass = audiencia", fillcolor="#f7d8fa"] ;
1929 -> 1930 ;
1931 [label="(...)", fillcolor="#C0C0C0"] ;
1930 -> 1931 ;
2336 [label="(...)", fillcolor="#C0C0C0"] ;
1930 -> 2336 ;
2337 [label="hildo <= 0.5\ngini = 0.58\nsamples = 13\nvalue = [9, 2, 6, 0]\nclass = outros", fillcolor="#f8ddc9"] ;
1929 -> 2337 ;
2338 [label="(...)", fillcolor="#C0C0C0"] ;
2337 -> 2338 ;
2353 [label="(...)", fillcolor="#C0C0C0"] ;
2337 -> 2353 ;
2354 [label="gini = 0.0\nsamples = 1\nvalue = [0, 0, 3, 0]\nclass = sentença", fillcolor="#399de5"] ;
1928 -> 2354 ;
2355 [label="ca <= 0.5\ngini = 0.69\nsamples = 29\nvalue = [14, 14, 2, 9]\nclass = outros", fillcolor="#ffffff"] ;
1927 -> 2355 ;
2356 [label="constante <= 0.5\ngini = 0.69\nsamples = 27\nvalue = [11, 14, 2, 9]\nclass = decisao", fillcolor="#e9fce7"] ;
2355 -> 2356 ;
2357 [label="processo <= 0.5\ngini = 0.67\nsamples = 24\nvalue = [6, 14, 2, 9]\nclass = decisao", fillcolor="#d5f9d2"] ;
2356 -> 2357 ;
2358 [label="(...)", fillcolor="#C0C0C0"] ;
2357 -> 2358 ;
2383 [label="(...)", fillcolor="#C0C0C0"] ;
2357 -> 2383 ;
2398 [label="gini = 0.0\nsamples = 3\nvalue = [5, 0, 0, 0]\nclass = outros", fillcolor="#e58139"] ;
2356 -> 2398 ;
2399 [label="gini = 0.0\nsamples = 2\nvalue = [3, 0, 0, 0]\nclass = outros", fillcolor="#e58139"] ;
2355 -> 2399 ;
2400 [label="gini = 0.0\nsamples = 2\nvalue = [3, 0, 0, 0]\nclass = outros", fillcolor="#e58139"] ;
1926 -> 2400 ;
2401 [label="intimacao <= 0.5\ngini = 0.57\nsamples = 106\nvalue = [38, 96, 6, 22]\nclass = decisao", fillcolor="#a9f3a2"] ;
1925 -> 2401 ;
2402 [label="peca <= 0.5\ngini = 0.47\nsamples = 83\nvalue = [27, 82, 6, 4]\nclass = decisao", fillcolor="#91ef89"] ;
2401 -> 2402 ;
2403 [label="gohr <= 0.5\ngini = 0.46\nsamples = 82\nvalue = [25, 82, 6, 4]\nclass = decisao", fillcolor="#8def84"] ;
2402 -> 2403 ;
2404 [label="acrescida <= 0.5\ngini = 0.44\nsamples = 80\nvalue = [22, 82, 6, 4]\nclass = decisao", fillcolor="#87ee7e"] ;
2403 -> 2404 ;
2405 [label="fernanda <= 0.5\ngini = 0.42\nsamples = 79\nvalue = [22, 82, 4, 4]\nclass = decisao", fillcolor="#84ee7b"] ;
2404 -> 2405 ;
2406 [label="(...)", fillcolor="#C0C0C0"] ;
2405 -> 2406 ;
2477 [label="(...)", fillcolor="#C0C0C0"] ;
2405 -> 2477 ;
2480 [label="gini = 0.0\nsamples = 1\nvalue = [0, 0, 2, 0]\nclass = sentença", fillcolor="#399de5"] ;
2404 -> 2480 ;
2481 [label="gini = 0.0\nsamples = 2\nvalue = [3, 0, 0, 0]\nclass = outros", fillcolor="#e58139"] ;
2403 -> 2481 ;
2482 [label="gini = 0.0\nsamples = 1\nvalue = [2, 0, 0, 0]\nclass = outros", fillcolor="#e58139"] ;
2402 -> 2482 ;
2483 [label="intime-se <= 0.5\ngini = 0.65\nsamples = 23\nvalue = [11, 14, 0, 18]\nclass = audiencia", fillcolor="#f9e4fb"] ;
2401 -> 2483 ;
2484 [label="f.s <= 0.5\ngini = 0.66\nsamples = 21\nvalue = [11, 14, 0, 15]\nclass = audiencia", fillcolor="#fdf7fe"] ;
2483 -> 2484 ;
2485 [label="muriae <= 0.5\ngini = 0.64\nsamples = 20\nvalue = [7, 14, 0, 15]\nclass = audiencia", fillcolor="#fdf6fe"] ;
2484 -> 2485 ;
2486 [label="fabio <= 0.5\ngini = 0.64\nsamples = 19\nvalue = [7, 14, 0, 12]\nclass = decisao", fillcolor="#edfdec"] ;
2485 -> 2486 ;
2487 [label="(...)", fillcolor="#C0C0C0"] ;
2486 -> 2487 ;
2516 [label="(...)", fillcolor="#C0C0C0"] ;
2486 -> 2516 ;
2517 [label="gini = 0.0\nsamples = 1\nvalue = [0, 0, 0, 3]\nclass = audiencia", fillcolor="#d739e5"] ;
2485 -> 2517 ;
2518 [label="gini = 0.0\nsamples = 1\nvalue = [4, 0, 0, 0]\nclass = outros", fillcolor="#e58139"] ;
2484 -> 2518 ;
2519 [label="gini = 0.0\nsamples = 2\nvalue = [0, 0, 0, 3]\nclass = audiencia", fillcolor="#d739e5"] ;
2483 -> 2519 ;
2520 [label="designo <= 0.5\ngini = 0.57\nsamples = 20\nvalue = [4, 4, 18, 3]\nclass = sentença", fillcolor="#90c8f0"] ;
1924 -> 2520 ;
2521 [label=":destaque <= 0.5\ngini = 0.51\nsamples = 19\nvalue = [4, 4, 18, 1]\nclass = sentença", fillcolor="#86c3ef"] ;
2520 -> 2521 ;
2522 [label="parente <= 0.5\ngini = 0.57\nsamples = 16\nvalue = [4, 4, 14, 1]\nclass = sentença", fillcolor="#97cbf1"] ;
2521 -> 2522 ;
2523 [label="titulo <= 0.5\ngini = 0.58\nsamples = 15\nvalue = [4, 4, 13, 1]\nclass = sentença", fillcolor="#9ccef2"] ;
2522 -> 2523 ;
2524 [label="amoedo <= 0.5\ngini = 0.52\nsamples = 14\nvalue = [4, 2, 13, 1]\nclass = sentença", fillcolor="#90c8f0"] ;
2523 -> 2524 ;
2525 [label="intimar <= 0.5\ngini = 0.48\nsamples = 13\nvalue = [4, 2, 13, 0]\nclass = sentença", fillcolor="#88c4ef"] ;
2524 -> 2525 ;
2526 [label="(...)", fillcolor="#C0C0C0"] ;
2525 -> 2526 ;
2537 [label="(...)", fillcolor="#C0C0C0"] ;
2525 -> 2537 ;
2538 [label="gini = 0.0\nsamples = 1\nvalue = [0, 0, 0, 1]\nclass = audiencia", fillcolor="#d739e5"] ;
2524 -> 2538 ;
2539 [label="gini = 0.0\nsamples = 1\nvalue = [0, 2, 0, 0]\nclass = decisao", fillcolor="#47e539"] ;
2523 -> 2539 ;
2540 [label="gini = 0.0\nsamples = 1\nvalue = [0, 0, 1, 0]\nclass = sentença", fillcolor="#399de5"] ;
2522 -> 2540 ;
2541 [label="gini = 0.0\nsamples = 3\nvalue = [0, 0, 4, 0]\nclass = sentença", fillcolor="#399de5"] ;
2521 -> 2541 ;
2542 [label="gini = 0.0\nsamples = 1\nvalue = [0, 0, 0, 2]\nclass = audiencia", fillcolor="#d739e5"] ;
2520 -> 2542 ;
2543 [label="joana <= 0.5\ngini = 0.6\nsamples = 40\nvalue = [37, 22, 2, 8]\nclass = outros", fillcolor="#f7d7c0"] ;
1923 -> 2543 ;
2544 [label="sessoes <= 1.5\ngini = 0.62\nsamples = 38\nvalue = [32, 22, 2, 8]\nclass = outros", fillcolor="#f9e1d0"] ;
2543 -> 2544 ;
2545 [label="fabricante <= 0.5\ngini = 0.64\nsamples = 32\nvalue = [24, 22, 2, 8]\nclass = outros", fillcolor="#fdf8f3"] ;
2544 -> 2545 ;
2546 [label="importacao <= 1.0\ngini = 0.64\nsamples = 31\nvalue = [24, 18, 2, 8]\nclass = outros", fillcolor="#fae9dc"] ;
2545 -> 2546 ;
2547 [label="processo <= 1.5\ngini = 0.65\nsamples = 30\nvalue = [21, 18, 2, 8]\nclass = outros", fillcolor="#fcf3ec"] ;
2546 -> 2547 ;
2548 [label="entao <= 0.5\ngini = 0.64\nsamples = 29\nvalue = [21, 18, 1, 8]\nclass = outros", fillcolor="#fcf2eb"] ;
2547 -> 2548 ;
2549 [label="pretendeu <= 0.5\ngini = 0.63\nsamples = 28\nvalue = [21, 18, 1, 7]\nclass = outros", fillcolor="#fcf2eb"] ;
2548 -> 2549 ;
2550 [label="(...)", fillcolor="#C0C0C0"] ;
2549 -> 2550 ;
2593 [label="(...)", fillcolor="#C0C0C0"] ;
2549 -> 2593 ;
2594 [label="gini = 0.0\nsamples = 1\nvalue = [0, 0, 0, 1]\nclass = audiencia", fillcolor="#d739e5"] ;
2548 -> 2594 ;
2595 [label="gini = 0.0\nsamples = 1\nvalue = [0, 0, 1, 0]\nclass = sentença", fillcolor="#399de5"] ;
2547 -> 2595 ;
2596 [label="gini = 0.0\nsamples = 1\nvalue = [3, 0, 0, 0]\nclass = outros", fillcolor="#e58139"] ;
2546 -> 2596 ;
2597 [label="gini = 0.0\nsamples = 1\nvalue = [0, 4, 0, 0]\nclass = decisao", fillcolor="#47e539"] ;
2545 -> 2597 ;
2598 [label="gini = 0.0\nsamples = 6\nvalue = [8, 0, 0, 0]\nclass = outros", fillcolor="#e58139"] ;
2544 -> 2598 ;
2599 [label="gini = 0.0\nsamples = 2\nvalue = [5, 0, 0, 0]\nclass = outros", fillcolor="#e58139"] ;
2543 -> 2599 ;
2600 [label="deposito <= 0.5\ngini = 0.62\nsamples = 650\nvalue = [129, 548, 74, 285]\nclass = decisao", fillcolor="#bff6ba"] ;
1922 -> 2600 ;
2601 [label="ficando <= 0.5\ngini = 0.64\nsamples = 589\nvalue = [115, 463, 67, 284]\nclass = decisao", fillcolor="#ccf8c8"] ;
2600 -> 2601 ;
2602 [label="agendada <= 0.5\ngini = 0.63\nsamples = 576\nvalue = [110, 461, 65, 272]\nclass = decisao", fillcolor="#c8f7c4"] ;
2601 -> 2602 ;
2603 [label="peres <= 0.5\ngini = 0.63\nsamples = 573\nvalue = [110, 461, 65, 265]\nclass = decisao", fillcolor="#c6f7c2"] ;
2602 -> 2603 ;
2604 [label="autora.transitada <= 0.5\ngini = 0.63\nsamples = 570\nvalue = [105, 460, 65, 265]\nclass = decisao", fillcolor="#c6f7c2"] ;
2603 -> 2604 ;
2605 [label="acrescimos <= 0.5\ngini = 0.63\nsamples = 569\nvalue = [105, 460, 63, 265]\nclass = decisao", fillcolor="#c6f7c2"] ;
2604 -> 2605 ;
2606 [label="rodolfo <= 0.5\ngini = 0.63\nsamples = 568\nvalue = [105, 460, 61, 265]\nclass = decisao", fillcolor="#c6f7c1"] ;
2605 -> 2606 ;
2607 [label="tendo <= 1.5\ngini = 0.63\nsamples = 567\nvalue = [105, 460, 61, 260]\nclass = decisao", fillcolor="#c4f7c0"] ;
2606 -> 2607 ;
2608 [label="(...)", fillcolor="#C0C0C0"] ;
2607 -> 2608 ;
3161 [label="(...)", fillcolor="#C0C0C0"] ;
2607 -> 3161 ;
3162 [label="gini = 0.0\nsamples = 1\nvalue = [0, 0, 0, 5]\nclass = audiencia", fillcolor="#d739e5"] ;
2606 -> 3162 ;
3163 [label="gini = 0.0\nsamples = 1\nvalue = [0, 0, 2, 0]\nclass = sentença", fillcolor="#399de5"] ;
2605 -> 3163 ;
3164 [label="gini = 0.0\nsamples = 1\nvalue = [0, 0, 2, 0]\nclass = sentença", fillcolor="#399de5"] ;
2604 -> 3164 ;
3165 [label="s <= 0.5\ngini = 0.28\nsamples = 3\nvalue = [5, 1, 0, 0]\nclass = outros", fillcolor="#ea9a61"] ;
2603 -> 3165 ;
3166 [label="neide <= 0.5\ngini = 0.38\nsamples = 2\nvalue = [3, 1, 0, 0]\nclass = outros", fillcolor="#eeab7b"] ;
3165 -> 3166 ;
3167 [label="gini = 0.0\nsamples = 1\nvalue = [0, 1, 0, 0]\nclass = decisao", fillcolor="#47e539"] ;
3166 -> 3167 ;
3168 [label="gini = 0.0\nsamples = 1\nvalue = [3, 0, 0, 0]\nclass = outros", fillcolor="#e58139"] ;
3166 -> 3168 ;
3169 [label="gini = 0.0\nsamples = 1\nvalue = [2, 0, 0, 0]\nclass = outros", fillcolor="#e58139"] ;
3165 -> 3169 ;
3170 [label="gini = 0.0\nsamples = 3\nvalue = [0, 0, 0, 7]\nclass = audiencia", fillcolor="#d739e5"] ;
2602 -> 3170 ;
3171 [label="competentes <= 0.5\ngini = 0.6\nsamples = 13\nvalue = [5, 2, 2, 12]\nclass = audiencia", fillcolor="#eea8f4"] ;
2601 -> 3171 ;
3172 [label="prejuizo <= 0.5\ngini = 0.58\nsamples = 12\nvalue = [4, 2, 2, 12]\nclass = audiencia", fillcolor="#eb9cf2"] ;
3171 -> 3172 ;
3173 [label="especial <= 1.5\ngini = 0.47\nsamples = 11\nvalue = [1, 2, 2, 12]\nclass = audiencia", fillcolor="#e47bee"] ;
3172 -> 3173 ;
3174 [label="alves <= 0.5\ngini = 0.41\nsamples = 10\nvalue = [1, 1, 2, 12]\nclass = audiencia", fillcolor="#e272ec"] ;
3173 -> 3174 ;
3175 [label="desentranhamento <= 0.5\ngini = 0.51\nsamples = 9\nvalue = [1, 1, 2, 8]\nclass = audiencia", fillcolor="#e788ef"] ;
3174 -> 3175 ;
3176 [label="custas <= 0.5\ngini = 0.43\nsamples = 8\nvalue = [1, 0, 2, 8]\nclass = audiencia", fillcolor="#e47bee"] ;
3175 -> 3176 ;
3177 [label="(...)", fillcolor="#C0C0C0"] ;
3176 -> 3177 ;
3184 [label="(...)", fillcolor="#C0C0C0"] ;
3176 -> 3184 ;
3185 [label="gini = 0.0\nsamples = 1\nvalue = [0, 1, 0, 0]\nclass = decisao", fillcolor="#47e539"] ;
3175 -> 3185 ;
3186 [label="gini = 0.0\nsamples = 1\nvalue = [0, 0, 0, 4]\nclass = audiencia", fillcolor="#d739e5"] ;
3174 -> 3186 ;
3187 [label="gini = 0.0\nsamples = 1\nvalue = [0, 1, 0, 0]\nclass = decisao", fillcolor="#47e539"] ;
3173 -> 3187 ;
3188 [label="gini = 0.0\nsamples = 1\nvalue = [3, 0, 0, 0]\nclass = outros", fillcolor="#e58139"] ;
3172 -> 3188 ;
3189 [label="gini = 0.0\nsamples = 1\nvalue = [1, 0, 0, 0]\nclass = outros", fillcolor="#e58139"] ;
3171 -> 3189 ;
3190 [label="concedo <= 0.5\ngini = 0.35\nsamples = 61\nvalue = [14, 85, 7, 1]\nclass = decisao", fillcolor="#73eb68"] ;
2600 -> 3190 ;
3191 [label="constar <= 0.5\ngini = 0.33\nsamples = 60\nvalue = [12, 85, 7, 1]\nclass = decisao", fillcolor="#6feb64"] ;
3190 -> 3191 ;
3192 [label="antecipacao <= 0.5\ngini = 0.29\nsamples = 59\nvalue = [12, 85, 4, 1]\nclass = decisao", fillcolor="#6aea5e"] ;
3191 -> 3192 ;
3193 [label="nova <= 0.5\ngini = 0.27\nsamples = 58\nvalue = [10, 85, 4, 1]\nclass = decisao", fillcolor="#66e95a"] ;
3192 -> 3193 ;
3194 [label="artigo <= 0.5\ngini = 0.28\nsamples = 56\nvalue = [10, 81, 4, 1]\nclass = decisao", fillcolor="#67ea5c"] ;
3193 -> 3194 ;
3195 [label="luzinete <= 0.5\ngini = 0.25\nsamples = 53\nvalue = [10, 79, 2, 1]\nclass = decisao", fillcolor="#64e958"] ;
3194 -> 3195 ;
3196 [label="dizer <= 0.5\ngini = 0.23\nsamples = 52\nvalue = [10, 79, 2, 0]\nclass = decisao", fillcolor="#62e956"] ;
3195 -> 3196 ;
3197 [label="(...)", fillcolor="#C0C0C0"] ;
3196 -> 3197 ;
3232 [label="(...)", fillcolor="#C0C0C0"] ;
3196 -> 3232 ;
3233 [label="gini = 0.0\nsamples = 1\nvalue = [0, 0, 0, 1]\nclass = audiencia", fillcolor="#d739e5"] ;
3195 -> 3233 ;
3234 [label="comprovante <= 0.5\ngini = 0.5\nsamples = 3\nvalue = [0, 2, 2, 0]\nclass = decisao", fillcolor="#ffffff"] ;
3194 -> 3234 ;
3235 [label="gini = 0.0\nsamples = 2\nvalue = [0, 0, 2, 0]\nclass = sentença", fillcolor="#399de5"] ;
3234 -> 3235 ;
3236 [label="gini = 0.0\nsamples = 1\nvalue = [0, 2, 0, 0]\nclass = decisao", fillcolor="#47e539"] ;
3234 -> 3236 ;
3237 [label="gini = 0.0\nsamples = 2\nvalue = [0, 4, 0, 0]\nclass = decisao", fillcolor="#47e539"] ;
3193 -> 3237 ;
3238 [label="gini = 0.0\nsamples = 1\nvalue = [2, 0, 0, 0]\nclass = outros", fillcolor="#e58139"] ;
3192 -> 3238 ;
3239 [label="gini = 0.0\nsamples = 1\nvalue = [0, 0, 3, 0]\nclass = sentença", fillcolor="#399de5"] ;
3191 -> 3239 ;
3240 [label="gini = 0.0\nsamples = 1\nvalue = [2, 0, 0, 0]\nclass = outros", fillcolor="#e58139"] ;
3190 -> 3240 ;
3241 [label="transito <= 0.5\ngini = 0.32\nsamples = 65\nvalue = [17, 1, 88, 3]\nclass = sentença", fillcolor="#66b3eb"] ;
1921 -> 3241 ;
3242 [label="inadimplemento <= 0.5\ngini = 0.31\nsamples = 56\nvalue = [13, 1, 76, 3]\nclass = sentença", fillcolor="#63b2eb"] ;
3241 -> 3242 ;
3243 [label="brognoli <= 0.5\ngini = 0.3\nsamples = 55\nvalue = [12, 1, 76, 3]\nclass = sentença", fillcolor="#61b1ea"] ;
3242 -> 3243 ;
3244 [label="barbara <= 0.5\ngini = 0.27\nsamples = 54\nvalue = [10, 1, 76, 3]\nclass = sentença", fillcolor="#5caeea"] ;
3243 -> 3244 ;
3245 [label="prevista <= 0.5\ngini = 0.26\nsamples = 53\nvalue = [10, 1, 76, 2]\nclass = sentença", fillcolor="#5aade9"] ;
3244 -> 3245 ;
3246 [label="judicialmente <= 0.5\ngini = 0.19\nsamples = 50\nvalue = [6, 1, 76, 2]\nclass = sentença", fillcolor="#50a8e8"] ;
3245 -> 3246 ;
3247 [label="fl <= 0.5\ngini = 0.18\nsamples = 49\nvalue = [5, 1, 76, 2]\nclass = sentença", fillcolor="#4da7e8"] ;
3246 -> 3247 ;
3248 [label="dando-se <= 0.5\ngini = 0.17\nsamples = 42\nvalue = [5, 0, 67, 2]\nclass = sentença", fillcolor="#4da7e8"] ;
3247 -> 3248 ;
3249 [label="devendo <= 0.5\ngini = 0.13\nsamples = 41\nvalue = [3, 0, 67, 2]\nclass = sentença", fillcolor="#47a4e7"] ;
3248 -> 3249 ;
3250 [label="(...)", fillcolor="#C0C0C0"] ;
3249 -> 3250 ;
3285 [label="(...)", fillcolor="#C0C0C0"] ;
3249 -> 3285 ;
3288 [label="gini = 0.0\nsamples = 1\nvalue = [2, 0, 0, 0]\nclass = outros", fillcolor="#e58139"] ;
3248 -> 3288 ;
3289 [label="instancia <= 0.5\ngini = 0.18\nsamples = 7\nvalue = [0, 1, 9, 0]\nclass = sentença", fillcolor="#4fa8e8"] ;
3247 -> 3289 ;
3290 [label="representacao <= 0.5\ngini = 0.32\nsamples = 4\nvalue = [0, 1, 4, 0]\nclass = sentença", fillcolor="#6ab6ec"] ;
3289 -> 3290 ;
3291 [label="(...)", fillcolor="#C0C0C0"] ;
3290 -> 3291 ;
3296 [label="(...)", fillcolor="#C0C0C0"] ;
3290 -> 3296 ;
3297 [label="gini = 0.0\nsamples = 3\nvalue = [0, 0, 5, 0]\nclass = sentença", fillcolor="#399de5"] ;
3289 -> 3297 ;
3298 [label="gini = 0.0\nsamples = 1\nvalue = [1, 0, 0, 0]\nclass = outros", fillcolor="#e58139"] ;
3246 -> 3298 ;
3299 [label="gini = 0.0\nsamples = 3\nvalue = [4, 0, 0, 0]\nclass = outros", fillcolor="#e58139"] ;
3245 -> 3299 ;
3300 [label="gini = 0.0\nsamples = 1\nvalue = [0, 0, 0, 1]\nclass = audiencia", fillcolor="#d739e5"] ;
3244 -> 3300 ;
3301 [label="gini = 0.0\nsamples = 1\nvalue = [2, 0, 0, 0]\nclass = outros", fillcolor="#e58139"] ;
3243 -> 3301 ;
3302 [label="gini = 0.0\nsamples = 1\nvalue = [1, 0, 0, 0]\nclass = outros", fillcolor="#e58139"] ;
3242 -> 3302 ;
3303 [label="forca <= 0.5\ngini = 0.38\nsamples = 9\nvalue = [4, 0, 12, 0]\nclass = sentença", fillcolor="#7bbeee"] ;
3241 -> 3303 ;
3304 [label="juizado <= 0.5\ngini = 0.41\nsamples = 8\nvalue = [4, 0, 10, 0]\nclass = sentença", fillcolor="#88c4ef"] ;
3303 -> 3304 ;
3305 [label="gini = 0.0\nsamples = 1\nvalue = [1, 0, 0, 0]\nclass = outros", fillcolor="#e58139"] ;
3304 -> 3305 ;
3306 [label="havendo <= 0.5\ngini = 0.36\nsamples = 7\nvalue = [3, 0, 10, 0]\nclass = sentença", fillcolor="#74baed"] ;
3304 -> 3306 ;
3307 [label="gini = 0.0\nsamples = 5\nvalue = [0, 0, 9, 0]\nclass = sentença", fillcolor="#399de5"] ;
3306 -> 3307 ;
3308 [label="paulo <= 0.5\ngini = 0.38\nsamples = 2\nvalue = [3, 0, 1, 0]\nclass = outros", fillcolor="#eeab7b"] ;
3306 -> 3308 ;
3309 [label="gini = 0.0\nsamples = 1\nvalue = [0, 0, 1, 0]\nclass = sentença", fillcolor="#399de5"] ;
3308 -> 3309 ;
3310 [label="gini = 0.0\nsamples = 1\nvalue = [3, 0, 0, 0]\nclass = outros", fillcolor="#e58139"] ;
3308 -> 3310 ;
3311 [label="gini = 0.0\nsamples = 1\nvalue = [0, 0, 2, 0]\nclass = sentença", fillcolor="#399de5"] ;
3303 -> 3311 ;
3312 [label="ana <= 0.5\ngini = 0.65\nsamples = 48\nvalue = [19, 22, 34, 1]\nclass = sentença", fillcolor="#d3e9f9"] ;
1920 -> 3312 ;
3313 [label="procuradores <= 0.5\ngini = 0.63\nsamples = 42\nvalue = [18, 18, 34, 0]\nclass = sentença", fillcolor="#c2e1f7"] ;
3312 -> 3313 ;
3314 [label="certificado <= 0.5\ngini = 0.6\nsamples = 40\nvalue = [12, 18, 34, 0]\nclass = sentença", fillcolor="#baddf6"] ;
3313 -> 3314 ;
3315 [label="celebrado <= 0.5\ngini = 0.62\nsamples = 37\nvalue = [12, 18, 30, 0]\nclass = sentença", fillcolor="#c6e3f8"] ;
3314 -> 3315 ;
3316 [label="proc <= 0.5\ngini = 0.64\nsamples = 33\nvalue = [12, 18, 26, 0]\nclass = sentença", fillcolor="#d5eafa"] ;
3315 -> 3316 ;
3317 [label="ficam <= 0.5\ngini = 0.61\nsamples = 24\nvalue = [6, 18, 20, 0]\nclass = sentença", fillcolor="#f0f7fd"] ;
3316 -> 3317 ;
3318 [label="ordinario <= 0.5\ngini = 0.62\nsamples = 22\nvalue = [6, 18, 16, 0]\nclass = decisao", fillcolor="#f0fdef"] ;
3317 -> 3318 ;
3319 [label="alves <= 0.5\ngini = 0.61\nsamples = 21\nvalue = [6, 18, 14, 0]\nclass = decisao", fillcolor="#e0fbde"] ;
3318 -> 3319 ;
3320 [label="gilvan <= 0.5\ngini = 0.52\nsamples = 19\nvalue = [1, 18, 14, 0]\nclass = decisao", fillcolor="#d8fad5"] ;
3319 -> 3320 ;
3321 [label="palmeira <= 0.5\ngini = 0.5\nsamples = 18\nvalue = [1, 18, 11, 0]\nclass = decisao", fillcolor="#bbf5b6"] ;
3320 -> 3321 ;
3322 [label="(...)", fillcolor="#C0C0C0"] ;
3321 -> 3322 ;
3347 [label="(...)", fillcolor="#C0C0C0"] ;
3321 -> 3347 ;
3348 [label="gini = 0.0\nsamples = 1\nvalue = [0, 0, 3, 0]\nclass = sentença", fillcolor="#399de5"] ;
3320 -> 3348 ;
3349 [label="gini = 0.0\nsamples = 2\nvalue = [5, 0, 0, 0]\nclass = outros", fillcolor="#e58139"] ;
3319 -> 3349 ;
3350 [label="gini = 0.0\nsamples = 1\nvalue = [0, 0, 2, 0]\nclass = sentença", fillcolor="#399de5"] ;
3318 -> 3350 ;
3351 [label="gini = 0.0\nsamples = 2\nvalue = [0, 0, 4, 0]\nclass = sentença", fillcolor="#399de5"] ;
3317 -> 3351 ;
3352 [label="etc <= 0.5\ngini = 0.5\nsamples = 9\nvalue = [6, 0, 6, 0]\nclass = outros", fillcolor="#ffffff"] ;
3316 -> 3352 ;
3353 [label="dias <= 0.5\ngini = 0.48\nsamples = 8\nvalue = [6, 0, 4, 0]\nclass = outros", fillcolor="#f6d5bd"] ;
3352 -> 3353 ;
3354 [label="gini = 0.0\nsamples = 1\nvalue = [1, 0, 0, 0]\nclass = outros", fillcolor="#e58139"] ;
3353 -> 3354 ;
3355 [label="reu <= 0.5\ngini = 0.49\nsamples = 7\nvalue = [5, 0, 4, 0]\nclass = outros", fillcolor="#fae6d7"] ;
3353 -> 3355 ;
3356 [label="feito <= 0.5\ngini = 0.5\nsamples = 6\nvalue = [4, 0, 4, 0]\nclass = outros", fillcolor="#ffffff"] ;
3355 -> 3356 ;
3357 [label="formalidades <= 0.5\ngini = 0.48\nsamples = 4\nvalue = [3, 0, 2, 0]\nclass = outros", fillcolor="#f6d5bd"] ;
3356 -> 3357 ;
3358 [label="(...)", fillcolor="#C0C0C0"] ;
3357 -> 3358 ;
3363 [label="(...)", fillcolor="#C0C0C0"] ;
3357 -> 3363 ;
3364 [label="outros <= 0.5\ngini = 0.44\nsamples = 2\nvalue = [1, 0, 2, 0]\nclass = sentença", fillcolor="#9ccef2"] ;
3356 -> 3364 ;
3365 [label="(...)", fillcolor="#C0C0C0"] ;
3364 -> 3365 ;
3366 [label="(...)", fillcolor="#C0C0C0"] ;
3364 -> 3366 ;
3367 [label="gini = 0.0\nsamples = 1\nvalue = [1, 0, 0, 0]\nclass = outros", fillcolor="#e58139"] ;
3355 -> 3367 ;
3368 [label="gini = 0.0\nsamples = 1\nvalue = [0, 0, 2, 0]\nclass = sentença", fillcolor="#399de5"] ;
3352 -> 3368 ;
3369 [label="gini = 0.0\nsamples = 4\nvalue = [0, 0, 4, 0]\nclass = sentença", fillcolor="#399de5"] ;
3315 -> 3369 ;
3370 [label="gini = 0.0\nsamples = 3\nvalue = [0, 0, 4, 0]\nclass = sentença", fillcolor="#399de5"] ;
3314 -> 3370 ;
3371 [label="gini = 0.0\nsamples = 2\nvalue = [6, 0, 0, 0]\nclass = outros", fillcolor="#e58139"] ;
3313 -> 3371 ;
3372 [label="especial <= 1.5\ngini = 0.5\nsamples = 6\nvalue = [1, 4, 0, 1]\nclass = decisao", fillcolor="#91ef88"] ;
3312 -> 3372 ;
3373 [label="oab <= 2.0\ngini = 0.32\nsamples = 5\nvalue = [0, 4, 0, 1]\nclass = decisao", fillcolor="#75ec6a"] ;
3372 -> 3373 ;
3374 [label="tendo <= 0.5\ngini = 0.38\nsamples = 4\nvalue = [0, 3, 0, 1]\nclass = decisao", fillcolor="#84ee7b"] ;
3373 -> 3374 ;
3375 [label="intime-se <= 0.5\ngini = 0.44\nsamples = 3\nvalue = [0, 2, 0, 1]\nclass = decisao", fillcolor="#a3f29c"] ;
3374 -> 3375 ;
3376 [label="possibilidade <= 0.5\ngini = 0.5\nsamples = 2\nvalue = [0, 1, 0, 1]\nclass = decisao", fillcolor="#ffffff"] ;
3375 -> 3376 ;
3377 [label="gini = 0.0\nsamples = 1\nvalue = [0, 1, 0, 0]\nclass = decisao", fillcolor="#47e539"] ;
3376 -> 3377 ;
3378 [label="gini = 0.0\nsamples = 1\nvalue = [0, 0, 0, 1]\nclass = audiencia", fillcolor="#d739e5"] ;
3376 -> 3378 ;
3379 [label="gini = 0.0\nsamples = 1\nvalue = [0, 1, 0, 0]\nclass = decisao", fillcolor="#47e539"] ;
3375 -> 3379 ;
3380 [label="gini = 0.0\nsamples = 1\nvalue = [0, 1, 0, 0]\nclass = decisao", fillcolor="#47e539"] ;
3374 -> 3380 ;
3381 [label="gini = 0.0\nsamples = 1\nvalue = [0, 1, 0, 0]\nclass = decisao", fillcolor="#47e539"] ;
3373 -> 3381 ;
3382 [label="gini = 0.0\nsamples = 1\nvalue = [1, 0, 0, 0]\nclass = outros", fillcolor="#e58139"] ;
3372 -> 3382 ;
3383 [label="condeno <= 0.5\ngini = 0.64\nsamples = 672\nvalue = [106, 556, 147, 273]\nclass = decisao", fillcolor="#bff6ba"] ;
1919 -> 3383 ;
3384 [label="mm <= 0.5\ngini = 0.64\nsamples = 665\nvalue = [106, 556, 135, 273]\nclass = decisao", fillcolor="#bef6b9"] ;
3383 -> 3384 ;
3385 [label="nome <= 1.5\ngini = 0.63\nsamples = 643\nvalue = [104, 552, 132, 249]\nclass = decisao", fillcolor="#b8f5b3"] ;
3384 -> 3385 ;
3386 [label="acao <= 0.5\ngini = 0.63\nsamples = 620\nvalue = [99, 539, 121, 238]\nclass = decisao", fillcolor="#b6f5b0"] ;
3385 -> 3386 ;
3387 [label="executada <= 0.5\ngini = 0.62\nsamples = 601\nvalue = [85, 533, 119, 227]\nclass = decisao", fillcolor="#b3f4ad"] ;
3386 -> 3387 ;
3388 [label="concordancia <= 0.5\ngini = 0.62\nsamples = 586\nvalue = [85, 510, 117, 227]\nclass = decisao", fillcolor="#b6f5b0"] ;
3387 -> 3388 ;
3389 [label="magistrado <= 0.5\ngini = 0.63\nsamples = 573\nvalue = [85, 490, 117, 224]\nclass = decisao", fillcolor="#b8f5b3"] ;
3388 -> 3389 ;
3390 [label="horas <= 0.5\ngini = 0.63\nsamples = 571\nvalue = [85, 490, 117, 219]\nclass = decisao", fillcolor="#b7f5b1"] ;
3389 -> 3390 ;
3391 [label="amorim <= 0.5\ngini = 0.59\nsamples = 501\nvalue = [81, 475, 117, 129]\nclass = decisao", fillcolor="#a0f299"] ;
3390 -> 3391 ;
3392 [label="gonzalez <= 1.5\ngini = 0.59\nsamples = 498\nvalue = [77, 474, 116, 129]\nclass = decisao", fillcolor="#a0f299"] ;
3391 -> 3392 ;
3393 [label="intime-se <= 0.5\ngini = 0.59\nsamples = 497\nvalue = [74, 474, 116, 129]\nclass = decisao", fillcolor="#9ff198"] ;
3392 -> 3393 ;
3394 [label="(...)", fillcolor="#C0C0C0"] ;
3393 -> 3394 ;
3957 [label="(...)", fillcolor="#C0C0C0"] ;
3393 -> 3957 ;
4046 [label="gini = 0.0\nsamples = 1\nvalue = [3, 0, 0, 0]\nclass = outros", fillcolor="#e58139"] ;
3392 -> 4046 ;
4047 [label="aguarde-se <= 0.5\ngini = 0.5\nsamples = 3\nvalue = [4, 1, 1, 0]\nclass = outros", fillcolor="#efb388"] ;
3391 -> 4047 ;
4048 [label="sentenca <= 1.5\ngini = 0.32\nsamples = 2\nvalue = [4, 0, 1, 0]\nclass = outros", fillcolor="#eca06a"] ;
4047 -> 4048 ;
4049 [label="(...)", fillcolor="#C0C0C0"] ;
4048 -> 4049 ;
4050 [label="(...)", fillcolor="#C0C0C0"] ;
4048 -> 4050 ;
4051 [label="gini = 0.0\nsamples = 1\nvalue = [0, 1, 0, 0]\nclass = decisao", fillcolor="#47e539"] ;
4047 -> 4051 ;
4052 [label="brasileira <= 0.5\ngini = 0.3\nsamples = 70\nvalue = [4, 15, 0, 90]\nclass = audiencia", fillcolor="#df61ea"] ;
3390 -> 4052 ;
4053 [label="aguarde-se <= 0.5\ngini = 0.3\nsamples = 69\nvalue = [4, 15, 0, 88]\nclass = audiencia", fillcolor="#df62ea"] ;
4052 -> 4053 ;
4054 [label="vindo <= 0.5\ngini = 0.28\nsamples = 68\nvalue = [2, 15, 0, 88]\nclass = audiencia", fillcolor="#df5eea"] ;
4053 -> 4054 ;
4055 [label="(...)", fillcolor="#C0C0C0"] ;
4054 -> 4055 ;
4098 [label="(...)", fillcolor="#C0C0C0"] ;
4054 -> 4098 ;
4099 [label="gini = 0.0\nsamples = 1\nvalue = [2, 0, 0, 0]\nclass = outros", fillcolor="#e58139"] ;
4053 -> 4099 ;
4100 [label="gini = 0.0\nsamples = 1\nvalue = [0, 0, 0, 2]\nclass = audiencia", fillcolor="#d739e5"] ;
4052 -> 4100 ;
4101 [label="gini = 0.0\nsamples = 2\nvalue = [0, 0, 0, 5]\nclass = audiencia", fillcolor="#d739e5"] ;
3389 -> 4101 ;
4102 [label="barra <= 0.5\ngini = 0.23\nsamples = 13\nvalue = [0, 20, 0, 3]\nclass = decisao", fillcolor="#63e957"] ;
3388 -> 4102 ;
4103 [label="guenther <= 0.5\ngini = 0.26\nsamples = 12\nvalue = [0, 17, 0, 3]\nclass = decisao", fillcolor="#67ea5c"] ;
4102 -> 4103 ;
4104 [label="gini = 0.0\nsamples = 11\nvalue = [0, 17, 0, 0]\nclass = decisao", fillcolor="#47e539"] ;
4103 -> 4104 ;
4105 [label="gini = 0.0\nsamples = 1\nvalue = [0, 0, 0, 3]\nclass = audiencia", fillcolor="#d739e5"] ;
4103 -> 4105 ;
4106 [label="gini = 0.0\nsamples = 1\nvalue = [0, 3, 0, 0]\nclass = decisao", fillcolor="#47e539"] ;
4102 -> 4106 ;
4107 [label="s/a <= 0.5\ngini = 0.15\nsamples = 15\nvalue = [0, 23, 2, 0]\nclass = decisao", fillcolor="#57e74a"] ;
3387 -> 4107 ;
4108 [label="assis <= 0.5\ngini = 0.17\nsamples = 14\nvalue = [0, 20, 2, 0]\nclass = decisao", fillcolor="#59e84d"] ;
4107 -> 4108 ;
4109 [label="shima <= 0.5\ngini = 0.18\nsamples = 13\nvalue = [0, 18, 2, 0]\nclass = decisao", fillcolor="#5be84f"] ;
4108 -> 4109 ;
4110 [label="gini = 0.0\nsamples = 11\nvalue = [0, 16, 0, 0]\nclass = decisao", fillcolor="#47e539"] ;
4109 -> 4110 ;
4111 [label="s. <= 0.5\ngini = 0.5\nsamples = 2\nvalue = [0, 2, 2, 0]\nclass = decisao", fillcolor="#ffffff"] ;
4109 -> 4111 ;
4112 [label="gini = 0.0\nsamples = 1\nvalue = [0, 0, 2, 0]\nclass = sentença", fillcolor="#399de5"] ;
4111 -> 4112 ;
4113 [label="gini = 0.0\nsamples = 1\nvalue = [0, 2, 0, 0]\nclass = decisao", fillcolor="#47e539"] ;
4111 -> 4113 ;
4114 [label="gini = 0.0\nsamples = 1\nvalue = [0, 2, 0, 0]\nclass = decisao", fillcolor="#47e539"] ;
4108 -> 4114 ;
4115 [label="gini = 0.0\nsamples = 1\nvalue = [0, 3, 0, 0]\nclass = decisao", fillcolor="#47e539"] ;
4107 -> 4115 ;
4116 [label="julgado <= 0.5\ngini = 0.67\nsamples = 19\nvalue = [14, 6, 2, 11]\nclass = outros", fillcolor="#fbeee4"] ;
3386 -> 4116 ;
4117 [label="aqui <= 0.5\ngini = 0.69\nsamples = 15\nvalue = [8, 6, 2, 11]\nclass = audiencia", fillcolor="#f9e0fb"] ;
4116 -> 4117 ;
4118 [label="realizado <= 0.5\ngini = 0.67\nsamples = 14\nvalue = [8, 4, 2, 11]\nclass = audiencia", fillcolor="#f8dcfa"] ;
4117 -> 4118 ;
4119 [label="x <= 0.5\ngini = 0.62\nsamples = 13\nvalue = [8, 4, 0, 11]\nclass = audiencia", fillcolor="#f7d7fa"] ;
4118 -> 4119 ;
4120 [label="bentes <= 0.5\ngini = 0.57\nsamples = 7\nvalue = [8, 2, 0, 4]\nclass = outros", fillcolor="#f5cdb0"] ;
4119 -> 4120 ;
4121 [label="h. <= 0.5\ngini = 0.61\nsamples = 6\nvalue = [6, 2, 0, 4]\nclass = outros", fillcolor="#f8e0ce"] ;
4120 -> 4121 ;
4122 [label="comprobatorio <= 0.5\ngini = 0.38\nsamples = 5\nvalue = [6, 2, 0, 0]\nclass = outros", fillcolor="#eeab7b"] ;
4121 -> 4122 ;
4123 [label="(...)", fillcolor="#C0C0C0"] ;
4122 -> 4123 ;
4128 [label="(...)", fillcolor="#C0C0C0"] ;
4122 -> 4128 ;
4129 [label="gini = 0.0\nsamples = 1\nvalue = [0, 0, 0, 4]\nclass = audiencia", fillcolor="#d739e5"] ;
4121 -> 4129 ;
4130 [label="gini = 0.0\nsamples = 1\nvalue = [2, 0, 0, 0]\nclass = outros", fillcolor="#e58139"] ;
4120 -> 4130 ;
4131 [label="apos <= 0.5\ngini = 0.35\nsamples = 6\nvalue = [0, 2, 0, 7]\nclass = audiencia", fillcolor="#e272ec"] ;
4119 -> 4131 ;
4132 [label="fica <= 0.5\ngini = 0.22\nsamples = 5\nvalue = [0, 1, 0, 7]\nclass = audiencia", fillcolor="#dd55e9"] ;
4131 -> 4132 ;
4133 [label="barboza <= 0.5\ngini = 0.38\nsamples = 3\nvalue = [0, 1, 0, 3]\nclass = audiencia", fillcolor="#e47bee"] ;
4132 -> 4133 ;
4134 [label="(...)", fillcolor="#C0C0C0"] ;
4133 -> 4134 ;
4137 [label="(...)", fillcolor="#C0C0C0"] ;
4133 -> 4137 ;
4138 [label="gini = 0.0\nsamples = 2\nvalue = [0, 0, 0, 4]\nclass = audiencia", fillcolor="#d739e5"] ;
4132 -> 4138 ;
4139 [label="gini = 0.0\nsamples = 1\nvalue = [0, 1, 0, 0]\nclass = decisao", fillcolor="#47e539"] ;
4131 -> 4139 ;
4140 [label="gini = 0.0\nsamples = 1\nvalue = [0, 0, 2, 0]\nclass = sentença", fillcolor="#399de5"] ;
4118 -> 4140 ;
4141 [label="gini = 0.0\nsamples = 1\nvalue = [0, 2, 0, 0]\nclass = decisao", fillcolor="#47e539"] ;
4117 -> 4141 ;
4142 [label="gini = 0.0\nsamples = 4\nvalue = [6, 0, 0, 0]\nclass = outros", fillcolor="#e58139"] ;
4116 -> 4142 ;
4143 [label="ser <= 0.5\ngini = 0.73\nsamples = 23\nvalue = [5, 13, 11, 11]\nclass = decisao", fillcolor="#f2fdf1"] ;
3385 -> 4143 ;
4144 [label="humberto <= 0.5\ngini = 0.72\nsamples = 20\nvalue = [5, 11, 11, 6]\nclass = decisao", fillcolor="#ffffff"] ;
4143 -> 4144 ;
4145 [label="utilidades <= 0.5\ngini = 0.69\nsamples = 19\nvalue = [5, 11, 11, 3]\nclass = decisao", fillcolor="#ffffff"] ;
4144 -> 4145 ;
4146 [label="passo <= 0.5\ngini = 0.68\nsamples = 18\nvalue = [4, 11, 11, 3]\nclass = decisao", fillcolor="#ffffff"] ;
4145 -> 4146 ;
4147 [label="ciencia <= 0.5\ngini = 0.69\nsamples = 17\nvalue = [4, 11, 9, 3]\nclass = decisao", fillcolor="#ebfce9"] ;
4146 -> 4147 ;
4148 [label="exclusive <= 0.5\ngini = 0.67\nsamples = 16\nvalue = [4, 11, 9, 2]\nclass = decisao", fillcolor="#e9fce8"] ;
4147 -> 4148 ;
4149 [label="ac <= 0.5\ngini = 0.62\nsamples = 14\nvalue = [4, 11, 3, 2]\nclass = decisao", fillcolor="#aef4a8"] ;
4148 -> 4149 ;
4150 [label="informatica <= 0.5\ngini = 0.6\nsamples = 13\nvalue = [3, 11, 3, 2]\nclass = decisao", fillcolor="#a3f29c"] ;
4149 -> 4150 ;
4151 [label="(...)", fillcolor="#C0C0C0"] ;
4150 -> 4151 ;
4170 [label="(...)", fillcolor="#C0C0C0"] ;
4150 -> 4170 ;
4171 [label="gini = 0.0\nsamples = 1\nvalue = [1, 0, 0, 0]\nclass = outros", fillcolor="#e58139"] ;
4149 -> 4171 ;
4172 [label="gini = 0.0\nsamples = 2\nvalue = [0, 0, 6, 0]\nclass = sentença", fillcolor="#399de5"] ;
4148 -> 4172 ;
4173 [label="gini = 0.0\nsamples = 1\nvalue = [0, 0, 0, 1]\nclass = audiencia", fillcolor="#d739e5"] ;
4147 -> 4173 ;
4174 [label="gini = 0.0\nsamples = 1\nvalue = [0, 0, 2, 0]\nclass = sentença", fillcolor="#399de5"] ;
4146 -> 4174 ;
4175 [label="gini = 0.0\nsamples = 1\nvalue = [1, 0, 0, 0]\nclass = outros", fillcolor="#e58139"] ;
4145 -> 4175 ;
4176 [label="gini = 0.0\nsamples = 1\nvalue = [0, 0, 0, 3]\nclass = audiencia", fillcolor="#d739e5"] ;
4144 -> 4176 ;
4177 [label="vista <= 0.5\ngini = 0.41\nsamples = 3\nvalue = [0, 2, 0, 5]\nclass = audiencia", fillcolor="#e788ef"] ;
4143 -> 4177 ;
4178 [label="gini = 0.0\nsamples = 2\nvalue = [0, 0, 0, 5]\nclass = audiencia", fillcolor="#d739e5"] ;
4177 -> 4178 ;
4179 [label="gini = 0.0\nsamples = 1\nvalue = [0, 2, 0, 0]\nclass = decisao", fillcolor="#47e539"] ;
4177 -> 4179 ;
4180 [label="cad <= 0.5\ngini = 0.44\nsamples = 22\nvalue = [2, 4, 3, 24]\nclass = audiencia", fillcolor="#e376ed"] ;
3384 -> 4180 ;
4181 [label="tribunal <= 0.5\ngini = 0.72\nsamples = 5\nvalue = [2, 1, 2, 3]\nclass = audiencia", fillcolor="#f8defb"] ;
4180 -> 4181 ;
4182 [label="miranda <= 0.5\ngini = 0.61\nsamples = 4\nvalue = [2, 1, 0, 3]\nclass = audiencia", fillcolor="#f5cef8"] ;
4181 -> 4182 ;
4183 [label="preparo <= 0.5\ngini = 0.64\nsamples = 3\nvalue = [2, 1, 0, 2]\nclass = outros", fillcolor="#ffffff"] ;
4182 -> 4183 ;
4184 [label="samambaia <= 0.5\ngini = 0.5\nsamples = 2\nvalue = [2, 0, 0, 2]\nclass = outros", fillcolor="#ffffff"] ;
4183 -> 4184 ;
4185 [label="gini = 0.0\nsamples = 1\nvalue = [2, 0, 0, 0]\nclass = outros", fillcolor="#e58139"] ;
4184 -> 4185 ;
4186 [label="gini = 0.0\nsamples = 1\nvalue = [0, 0, 0, 2]\nclass = audiencia", fillcolor="#d739e5"] ;
4184 -> 4186 ;
4187 [label="gini = 0.0\nsamples = 1\nvalue = [0, 1, 0, 0]\nclass = decisao", fillcolor="#47e539"] ;
4183 -> 4187 ;
4188 [label="gini = 0.0\nsamples = 1\nvalue = [0, 0, 0, 1]\nclass = audiencia", fillcolor="#d739e5"] ;
4182 -> 4188 ;
4189 [label="gini = 0.0\nsamples = 1\nvalue = [0, 0, 2, 0]\nclass = sentença", fillcolor="#399de5"] ;
4181 -> 4189 ;
4190 [label="forum <= 0.5\ngini = 0.28\nsamples = 17\nvalue = [0, 3, 1, 21]\nclass = audiencia", fillcolor="#de5dea"] ;
4180 -> 4190 ;
4191 [label="rios <= 0.5\ngini = 0.3\nsamples = 16\nvalue = [0, 3, 1, 19]\nclass = audiencia", fillcolor="#df61ea"] ;
4190 -> 4191 ;
4192 [label="homologo <= 0.5\ngini = 0.31\nsamples = 15\nvalue = [0, 3, 1, 18]\nclass = audiencia", fillcolor="#df63ea"] ;
4191 -> 4192 ;
4193 [label="certidaocertifico <= 0.5\ngini = 0.24\nsamples = 14\nvalue = [0, 3, 0, 18]\nclass = audiencia", fillcolor="#de5ae9"] ;
4192 -> 4193 ;
4194 [label="pagamento <= 0.5\ngini = 0.26\nsamples = 13\nvalue = [0, 3, 0, 17]\nclass = audiencia", fillcolor="#de5cea"] ;
4193 -> 4194 ;
4195 [label="silva <= 0.5\ngini = 0.11\nsamples = 11\nvalue = [0, 1, 0, 16]\nclass = audiencia", fillcolor="#da45e7"] ;
4194 -> 4195 ;
4196 [label="gini = 0.0\nsamples = 8\nvalue = [0, 0, 0, 13]\nclass = audiencia", fillcolor="#d739e5"] ;
4195 -> 4196 ;
4197 [label="certifico <= 0.5\ngini = 0.38\nsamples = 3\nvalue = [0, 1, 0, 3]\nclass = audiencia", fillcolor="#e47bee"] ;
4195 -> 4197 ;
4198 [label="padua <= 0.5\ngini = 0.44\nsamples = 2\nvalue = [0, 1, 0, 2]\nclass = audiencia", fillcolor="#eb9cf2"] ;
4197 -> 4198 ;
4199 [label="(...)", fillcolor="#C0C0C0"] ;
4198 -> 4199 ;
4200 [label="(...)", fillcolor="#C0C0C0"] ;
4198 -> 4200 ;
4201 [label="gini = 0.0\nsamples = 1\nvalue = [0, 0, 0, 1]\nclass = audiencia", fillcolor="#d739e5"] ;
4197 -> 4201 ;
4202 [label="pena <= 0.5\ngini = 0.44\nsamples = 2\nvalue = [0, 2, 0, 1]\nclass = decisao", fillcolor="#a3f29c"] ;
4194 -> 4202 ;
4203 [label="gini = 0.0\nsamples = 1\nvalue = [0, 0, 0, 1]\nclass = audiencia", fillcolor="#d739e5"] ;
4202 -> 4203 ;
4204 [label="gini = 0.0\nsamples = 1\nvalue = [0, 2, 0, 0]\nclass = decisao", fillcolor="#47e539"] ;
4202 -> 4204 ;
4205 [label="gini = 0.0\nsamples = 1\nvalue = [0, 0, 0, 1]\nclass = audiencia", fillcolor="#d739e5"] ;
4193 -> 4205 ;
4206 [label="gini = 0.0\nsamples = 1\nvalue = [0, 0, 1, 0]\nclass = sentença", fillcolor="#399de5"] ;
4192 -> 4206 ;
4207 [label="gini = 0.0\nsamples = 1\nvalue = [0, 0, 0, 1]\nclass = audiencia", fillcolor="#d739e5"] ;
4191 -> 4207 ;
4208 [label="gini = 0.0\nsamples = 1\nvalue = [0, 0, 0, 2]\nclass = audiencia", fillcolor="#d739e5"] ;
4190 -> 4208 ;
4209 [label="gini = 0.0\nsamples = 7\nvalue = [0, 0, 12, 0]\nclass = sentença", fillcolor="#399de5"] ;
3383 -> 4209 ;
4210 [label="tecnica <= 0.5\ngini = 0.65\nsamples = 62\nvalue = [25, 32, 47, 1]\nclass = sentença", fillcolor="#d6ebfa"] ;
1918 -> 4210 ;
4211 [label="luiz <= 3.5\ngini = 0.63\nsamples = 57\nvalue = [16, 32, 44, 1]\nclass = sentença", fillcolor="#d8ecfa"] ;
4210 -> 4211 ;
4212 [label="modenesi <= 0.5\ngini = 0.6\nsamples = 53\nvalue = [16, 20, 44, 1]\nclass = sentença", fillcolor="#b1d8f5"] ;
4211 -> 4212 ;
4213 [label="debito <= 0.5\ngini = 0.6\nsamples = 52\nvalue = [15, 20, 44, 1]\nclass = sentença", fillcolor="#b0d8f5"] ;
4212 -> 4213 ;
4214 [label="posto <= 0.5\ngini = 0.57\nsamples = 49\nvalue = [15, 14, 44, 1]\nclass = sentença", fillcolor="#9ecff2"] ;
4213 -> 4214 ;
4215 [label="exposto <= 0.5\ngini = 0.64\nsamples = 39\nvalue = [15, 14, 28, 1]\nclass = sentença", fillcolor="#c3e1f7"] ;
4214 -> 4215 ;
4216 [label="juizado <= 0.5\ngini = 0.67\nsamples = 23\nvalue = [10, 14, 8, 1]\nclass = decisao", fillcolor="#dffadd"] ;
4215 -> 4216 ;
4217 [label="sessao <= 1.0\ngini = 0.59\nsamples = 7\nvalue = [0, 4, 4, 1]\nclass = decisao", fillcolor="#ffffff"] ;
4216 -> 4217 ;
4218 [label="nao <= 1.5\ngini = 0.32\nsamples = 4\nvalue = [0, 0, 4, 1]\nclass = sentença", fillcolor="#6ab6ec"] ;
4217 -> 4218 ;
4219 [label="gini = 0.0\nsamples = 3\nvalue = [0, 0, 4, 0]\nclass = sentença", fillcolor="#399de5"] ;
4218 -> 4219 ;
4220 [label="gini = 0.0\nsamples = 1\nvalue = [0, 0, 0, 1]\nclass = audiencia", fillcolor="#d739e5"] ;
4218 -> 4220 ;
4221 [label="gini = 0.0\nsamples = 3\nvalue = [0, 4, 0, 0]\nclass = decisao", fillcolor="#47e539"] ;
4217 -> 4221 ;
4222 [label="instancia <= 0.5\ngini = 0.62\nsamples = 16\nvalue = [10, 10, 4, 0]\nclass = outros", fillcolor="#ffffff"] ;
4216 -> 4222 ;
4223 [label="mista <= 1.0\ngini = 0.46\nsamples = 8\nvalue = [9, 3, 1, 0]\nclass = outros", fillcolor="#efb388"] ;
4222 -> 4223 ;
4224 [label="stj.sem <= 0.5\ngini = 0.4\nsamples = 7\nvalue = [9, 2, 1, 0]\nclass = outros", fillcolor="#eda774"] ;
4223 -> 4224 ;
4225 [label="recursal <= 5.0\ngini = 0.43\nsamples = 6\nvalue = [8, 2, 1, 0]\nclass = outros", fillcolor="#eeab7b"] ;
4224 -> 4225 ;
4226 [label="adriana <= 0.5\ngini = 0.34\nsamples = 5\nvalue = [8, 1, 1, 0]\nclass = outros", fillcolor="#eb9d65"] ;
4225 -> 4226 ;
4227 [label="(...)", fillcolor="#C0C0C0"] ;
4226 -> 4227 ;
4232 [label="(...)", fillcolor="#C0C0C0"] ;
4226 -> 4232 ;
4233 [label="gini = 0.0\nsamples = 1\nvalue = [0, 1, 0, 0]\nclass = decisao", fillcolor="#47e539"] ;
4225 -> 4233 ;
4234 [label="gini = 0.0\nsamples = 1\nvalue = [1, 0, 0, 0]\nclass = outros", fillcolor="#e58139"] ;
4224 -> 4234 ;
4235 [label="gini = 0.0\nsamples = 1\nvalue = [0, 1, 0, 0]\nclass = decisao", fillcolor="#47e539"] ;
4223 -> 4235 ;
4236 [label="citacao <= 0.5\ngini = 0.51\nsamples = 8\nvalue = [1, 7, 3, 0]\nclass = decisao", fillcolor="#a3f29c"] ;
4222 -> 4236 ;
4237 [label="mes <= 0.5\ngini = 0.37\nsamples = 7\nvalue = [1, 7, 1, 0]\nclass = decisao", fillcolor="#75ec6a"] ;
4236 -> 4237 ;
4238 [label="service <= 0.5\ngini = 0.22\nsamples = 6\nvalue = [1, 7, 0, 0]\nclass = decisao", fillcolor="#61e955"] ;
4237 -> 4238 ;
4239 [label="gini = 0.0\nsamples = 5\nvalue = [0, 7, 0, 0]\nclass = decisao", fillcolor="#47e539"] ;
4238 -> 4239 ;
4240 [label="gini = 0.0\nsamples = 1\nvalue = [1, 0, 0, 0]\nclass = outros", fillcolor="#e58139"] ;
4238 -> 4240 ;
4241 [label="gini = 0.0\nsamples = 1\nvalue = [0, 0, 1, 0]\nclass = sentença", fillcolor="#399de5"] ;
4237 -> 4241 ;
4242 [label="gini = 0.0\nsamples = 1\nvalue = [0, 0, 2, 0]\nclass = sentença", fillcolor="#399de5"] ;
4236 -> 4242 ;
4243 [label="seiscentos <= 0.5\ngini = 0.32\nsamples = 16\nvalue = [5, 0, 20, 0]\nclass = sentença", fillcolor="#6ab6ec"] ;
4215 -> 4243 ;
4244 [label="trinta <= 1.0\ngini = 0.17\nsamples = 15\nvalue = [2, 0, 20, 0]\nclass = sentença", fillcolor="#4da7e8"] ;
4243 -> 4244 ;
4245 [label="magazine <= 1.0\ngini = 0.19\nsamples = 14\nvalue = [2, 0, 17, 0]\nclass = sentença", fillcolor="#50a9e8"] ;
4244 -> 4245 ;
4246 [label="menezes <= 0.5\ngini = 0.1\nsamples = 13\nvalue = [1, 0, 17, 0]\nclass = sentença", fillcolor="#45a3e7"] ;
4245 -> 4246 ;
4247 [label="adimplemento <= 0.5\ngini = 0.12\nsamples = 12\nvalue = [1, 0, 15, 0]\nclass = sentença", fillcolor="#46a4e7"] ;
4246 -> 4247 ;
4248 [label="gini = 0.0\nsamples = 11\nvalue = [0, 0, 15, 0]\nclass = sentença", fillcolor="#399de5"] ;
4247 -> 4248 ;
4249 [label="gini = 0.0\nsamples = 1\nvalue = [1, 0, 0, 0]\nclass = outros", fillcolor="#e58139"] ;
4247 -> 4249 ;
4250 [label="gini = 0.0\nsamples = 1\nvalue = [0, 0, 2, 0]\nclass = sentença", fillcolor="#399de5"] ;
4246 -> 4250 ;
4251 [label="gini = 0.0\nsamples = 1\nvalue = [1, 0, 0, 0]\nclass = outros", fillcolor="#e58139"] ;
4245 -> 4251 ;
4252 [label="gini = 0.0\nsamples = 1\nvalue = [0, 0, 3, 0]\nclass = sentença", fillcolor="#399de5"] ;
4244 -> 4252 ;
4253 [label="gini = 0.0\nsamples = 1\nvalue = [3, 0, 0, 0]\nclass = outros", fillcolor="#e58139"] ;
4243 -> 4253 ;
4254 [label="gini = 0.0\nsamples = 10\nvalue = [0, 0, 16, 0]\nclass = sentença", fillcolor="#399de5"] ;
4214 -> 4254 ;
4255 [label="gini = 0.0\nsamples = 3\nvalue = [0, 6, 0, 0]\nclass = decisao", fillcolor="#47e539"] ;
4213 -> 4255 ;
4256 [label="gini = 0.0\nsamples = 1\nvalue = [1, 0, 0, 0]\nclass = outros", fillcolor="#e58139"] ;
4212 -> 4256 ;
4257 [label="gini = 0.0\nsamples = 4\nvalue = [0, 12, 0, 0]\nclass = decisao", fillcolor="#47e539"] ;
4211 -> 4257 ;
4258 [label="g <= 0.5\ngini = 0.38\nsamples = 5\nvalue = [9, 0, 3, 0]\nclass = outros", fillcolor="#eeab7b"] ;
4210 -> 4258 ;
4259 [label="gini = 0.0\nsamples = 4\nvalue = [9, 0, 0, 0]\nclass = outros", fillcolor="#e58139"] ;
4258 -> 4259 ;
4260 [label="gini = 0.0\nsamples = 1\nvalue = [0, 0, 3, 0]\nclass = sentença", fillcolor="#399de5"] ;
4258 -> 4260 ;
4261 [label="sentenca <= 0.5\ngini = 0.59\nsamples = 134\nvalue = [64, 119, 31, 2]\nclass = decisao", fillcolor="#bcf6b7"] ;
1917 -> 4261 ;
4262 [label="prazo <= 0.5\ngini = 0.54\nsamples = 100\nvalue = [52, 97, 13, 2]\nclass = decisao", fillcolor="#b5f5af"] ;
4261 -> 4262 ;
4263 [label="penha <= 0.5\ngini = 0.52\nsamples = 43\nvalue = [10, 44, 11, 2]\nclass = decisao", fillcolor="#93f08a"] ;
4262 -> 4263 ;
4264 [label="e/ou <= 0.5\ngini = 0.51\nsamples = 42\nvalue = [10, 44, 10, 2]\nclass = decisao", fillcolor="#8fef87"] ;
4263 -> 4264 ;
4265 [label="conforme <= 0.5\ngini = 0.5\nsamples = 41\nvalue = [10, 44, 9, 2]\nclass = decisao", fillcolor="#8def85"] ;
4264 -> 4265 ;
4266 [label="santana <= 0.5\ngini = 0.57\nsamples = 29\nvalue = [7, 27, 9, 2]\nclass = decisao", fillcolor="#a3f29c"] ;
4265 -> 4266 ;
4267 [label="nao <= 0.5\ngini = 0.55\nsamples = 26\nvalue = [7, 25, 6, 2]\nclass = decisao", fillcolor="#9bf193"] ;
4266 -> 4267 ;
4268 [label="consumidor <= 0.5\ngini = 0.47\nsamples = 23\nvalue = [6, 23, 2, 2]\nclass = decisao", fillcolor="#8bef82"] ;
4267 -> 4268 ;
4269 [label="baldini <= 0.5\ngini = 0.42\nsamples = 22\nvalue = [4, 23, 2, 2]\nclass = decisao", fillcolor="#7eed74"] ;
4268 -> 4269 ;
4270 [label="faria <= 0.5\ngini = 0.35\nsamples = 21\nvalue = [4, 23, 2, 0]\nclass = decisao", fillcolor="#73eb69"] ;
4269 -> 4270 ;
4271 [label="iv <= 0.5\ngini = 0.31\nsamples = 20\nvalue = [3, 23, 2, 0]\nclass = decisao", fillcolor="#6cea61"] ;
4270 -> 4271 ;
4272 [label="mayer <= 0.5\ngini = 0.32\nsamples = 19\nvalue = [3, 22, 2, 0]\nclass = decisao", fillcolor="#6dea62"] ;
4271 -> 4272 ;
4273 [label="lincoln <= 0.5\ngini = 0.21\nsamples = 18\nvalue = [3, 22, 0, 0]\nclass = decisao", fillcolor="#60e954"] ;
4272 -> 4273 ;
4274 [label="(...)", fillcolor="#C0C0C0"] ;
4273 -> 4274 ;
4287 [label="(...)", fillcolor="#C0C0C0"] ;
4273 -> 4287 ;
4288 [label="gini = 0.0\nsamples = 1\nvalue = [0, 0, 2, 0]\nclass = sentença", fillcolor="#399de5"] ;
4272 -> 4288 ;
4289 [label="gini = 0.0\nsamples = 1\nvalue = [0, 1, 0, 0]\nclass = decisao", fillcolor="#47e539"] ;
4271 -> 4289 ;
4290 [label="gini = 0.0\nsamples = 1\nvalue = [1, 0, 0, 0]\nclass = outros", fillcolor="#e58139"] ;
4270 -> 4290 ;
4291 [label="gini = 0.0\nsamples = 1\nvalue = [0, 0, 0, 2]\nclass = audiencia", fillcolor="#d739e5"] ;
4269 -> 4291 ;
4292 [label="gini = 0.0\nsamples = 1\nvalue = [2, 0, 0, 0]\nclass = outros", fillcolor="#e58139"] ;
4268 -> 4292 ;
4293 [label="daniel <= 0.5\ngini = 0.57\nsamples = 3\nvalue = [1, 2, 4, 0]\nclass = sentença", fillcolor="#b0d8f5"] ;
4267 -> 4293 ;
4294 [label="rj <= 0.5\ngini = 0.44\nsamples = 2\nvalue = [1, 2, 0, 0]\nclass = decisao", fillcolor="#a3f29c"] ;
4293 -> 4294 ;
4295 [label="gini = 0.0\nsamples = 1\nvalue = [1, 0, 0, 0]\nclass = outros", fillcolor="#e58139"] ;
4294 -> 4295 ;
4296 [label="gini = 0.0\nsamples = 1\nvalue = [0, 2, 0, 0]\nclass = decisao", fillcolor="#47e539"] ;
4294 -> 4296 ;
4297 [label="gini = 0.0\nsamples = 1\nvalue = [0, 0, 4, 0]\nclass = sentença", fillcolor="#399de5"] ;
4293 -> 4297 ;
4298 [label="eliana <= 0.5\ngini = 0.48\nsamples = 3\nvalue = [0, 2, 3, 0]\nclass = sentença", fillcolor="#bddef6"] ;
4266 -> 4298 ;
4299 [label="morais <= 0.5\ngini = 0.38\nsamples = 2\nvalue = [0, 1, 3, 0]\nclass = sentença", fillcolor="#7bbeee"] ;
4298 -> 4299 ;
4300 [label="gini = 0.0\nsamples = 1\nvalue = [0, 0, 3, 0]\nclass = sentença", fillcolor="#399de5"] ;
4299 -> 4300 ;
4301 [label="gini = 0.0\nsamples = 1\nvalue = [0, 1, 0, 0]\nclass = decisao", fillcolor="#47e539"] ;
4299 -> 4301 ;
4302 [label="gini = 0.0\nsamples = 1\nvalue = [0, 1, 0, 0]\nclass = decisao", fillcolor="#47e539"] ;
4298 -> 4302 ;
4303 [label="vinda <= 0.5\ngini = 0.26\nsamples = 12\nvalue = [3, 17, 0, 0]\nclass = decisao", fillcolor="#67ea5c"] ;
4265 -> 4303 ;
4304 [label="gini = 0.0\nsamples = 3\nvalue = [0, 3, 0, 0]\nclass = decisao", fillcolor="#47e539"] ;
4303 -> 4304 ;
4305 [label="eletronicos <= 0.5\ngini = 0.29\nsamples = 9\nvalue = [3, 14, 0, 0]\nclass = decisao", fillcolor="#6eeb63"] ;
4303 -> 4305 ;
4306 [label="despacho <= 0.5\ngini = 0.32\nsamples = 8\nvalue = [3, 12, 0, 0]\nclass = decisao", fillcolor="#75ec6a"] ;
4305 -> 4306 ;
4307 [label="tomaz <= 0.5\ngini = 0.4\nsamples = 6\nvalue = [3, 8, 0, 0]\nclass = decisao", fillcolor="#8cef83"] ;
4306 -> 4307 ;
4308 [label="dr <= 2.5\ngini = 0.44\nsamples = 5\nvalue = [3, 6, 0, 0]\nclass = decisao", fillcolor="#a3f29c"] ;
4307 -> 4308 ;
4309 [label="paula <= 0.5\ngini = 0.38\nsamples = 4\nvalue = [2, 6, 0, 0]\nclass = decisao", fillcolor="#84ee7b"] ;
4308 -> 4309 ;
4310 [label="gini = 0.0\nsamples = 3\nvalue = [0, 6, 0, 0]\nclass = decisao", fillcolor="#47e539"] ;
4309 -> 4310 ;
4311 [label="gini = 0.0\nsamples = 1\nvalue = [2, 0, 0, 0]\nclass = outros", fillcolor="#e58139"] ;
4309 -> 4311 ;
4312 [label="gini = 0.0\nsamples = 1\nvalue = [1, 0, 0, 0]\nclass = outros", fillcolor="#e58139"] ;
4308 -> 4312 ;
4313 [label="gini = 0.0\nsamples = 1\nvalue = [0, 2, 0, 0]\nclass = decisao", fillcolor="#47e539"] ;
4307 -> 4313 ;
4314 [label="gini = 0.0\nsamples = 2\nvalue = [0, 4, 0, 0]\nclass = decisao", fillcolor="#47e539"] ;
4306 -> 4314 ;
4315 [label="gini = 0.0\nsamples = 1\nvalue = [0, 2, 0, 0]\nclass = decisao", fillcolor="#47e539"] ;
4305 -> 4315 ;
4316 [label="gini = 0.0\nsamples = 1\nvalue = [0, 0, 1, 0]\nclass = sentença", fillcolor="#399de5"] ;
4264 -> 4316 ;
4317 [label="gini = 0.0\nsamples = 1\nvalue = [0, 0, 1, 0]\nclass = sentença", fillcolor="#399de5"] ;
4263 -> 4317 ;
4318 [label="bloqueado <= 0.5\ngini = 0.51\nsamples = 57\nvalue = [42, 53, 2, 0]\nclass = decisao", fillcolor="#dafad7"] ;
4262 -> 4318 ;
4319 [label="mairena <= 0.5\ngini = 0.51\nsamples = 55\nvalue = [39, 53, 2, 0]\nclass = decisao", fillcolor="#d0f8cd"] ;
4318 -> 4319 ;
4320 [label="somente <= 0.5\ngini = 0.5\nsamples = 54\nvalue = [35, 53, 2, 0]\nclass = decisao", fillcolor="#c3f6be"] ;
4319 -> 4320 ;
4321 [label="proc <= 0.5\ngini = 0.48\nsamples = 53\nvalue = [35, 53, 0, 0]\nclass = decisao", fillcolor="#c1f6bc"] ;
4320 -> 4321 ;
4322 [label="trabalho <= 0.5\ngini = 0.33\nsamples = 24\nvalue = [8, 30, 0, 0]\nclass = decisao", fillcolor="#78ec6e"] ;
4321 -> 4322 ;
4323 [label="helena <= 0.5\ngini = 0.24\nsamples = 23\nvalue = [5, 30, 0, 0]\nclass = decisao", fillcolor="#66e95a"] ;
4322 -> 4323 ;
4324 [label="catarina <= 0.5\ngini = 0.27\nsamples = 20\nvalue = [5, 26, 0, 0]\nclass = decisao", fillcolor="#6aea5f"] ;
4323 -> 4324 ;
4325 [label="feito <= 0.5\ngini = 0.2\nsamples = 17\nvalue = [3, 24, 0, 0]\nclass = decisao", fillcolor="#5ee852"] ;
4324 -> 4325 ;
4326 [label="oposicao <= 0.5\ngini = 0.08\nsamples = 16\nvalue = [1, 24, 0, 0]\nclass = decisao", fillcolor="#4fe641"] ;
4325 -> 4326 ;
4327 [label="contra <= 0.5\ngini = 0.08\nsamples = 15\nvalue = [1, 23, 0, 0]\nclass = decisao", fillcolor="#4fe642"] ;
4326 -> 4327 ;
4328 [label="gini = 0.0\nsamples = 13\nvalue = [0, 22, 0, 0]\nclass = decisao", fillcolor="#47e539"] ;
4327 -> 4328 ;
4329 [label="expeca-se <= 0.5\ngini = 0.5\nsamples = 2\nvalue = [1, 1, 0, 0]\nclass = outros", fillcolor="#ffffff"] ;
4327 -> 4329 ;
4330 [label="(...)", fillcolor="#C0C0C0"] ;
4329 -> 4330 ;
4331 [label="(...)", fillcolor="#C0C0C0"] ;
4329 -> 4331 ;
4332 [label="gini = 0.0\nsamples = 1\nvalue = [0, 1, 0, 0]\nclass = decisao", fillcolor="#47e539"] ;
4326 -> 4332 ;
4333 [label="gini = 0.0\nsamples = 1\nvalue = [2, 0, 0, 0]\nclass = outros", fillcolor="#e58139"] ;
4325 -> 4333 ;
4334 [label="i <= 0.5\ngini = 0.5\nsamples = 3\nvalue = [2, 2, 0, 0]\nclass = outros", fillcolor="#ffffff"] ;
4324 -> 4334 ;
4335 [label="gini = 0.0\nsamples = 2\nvalue = [0, 2, 0, 0]\nclass = decisao", fillcolor="#47e539"] ;
4334 -> 4335 ;
4336 [label="gini = 0.0\nsamples = 1\nvalue = [2, 0, 0, 0]\nclass = outros", fillcolor="#e58139"] ;
4334 -> 4336 ;
4337 [label="gini = 0.0\nsamples = 3\nvalue = [0, 4, 0, 0]\nclass = decisao", fillcolor="#47e539"] ;
4323 -> 4337 ;
4338 [label="gini = 0.0\nsamples = 1\nvalue = [3, 0, 0, 0]\nclass = outros", fillcolor="#e58139"] ;
4322 -> 4338 ;
4339 [label="comarca <= 0.5\ngini = 0.5\nsamples = 29\nvalue = [27, 23, 0, 0]\nclass = outros", fillcolor="#fbece2"] ;
4321 -> 4339 ;
4340 [label="gini = 0.0\nsamples = 4\nvalue = [0, 5, 0, 0]\nclass = decisao", fillcolor="#47e539"] ;
4339 -> 4340 ;
4341 [label="apos <= 0.5\ngini = 0.48\nsamples = 25\nvalue = [27, 18, 0, 0]\nclass = outros", fillcolor="#f6d5bd"] ;
4339 -> 4341 ;
4342 [label="outro <= 0.5\ngini = 0.5\nsamples = 22\nvalue = [21, 18, 0, 0]\nclass = outros", fillcolor="#fbede3"] ;
4341 -> 4342 ;
4343 [label="samsumg <= 0.5\ngini = 0.48\nsamples = 20\nvalue = [21, 14, 0, 0]\nclass = outros", fillcolor="#f6d5bd"] ;
4342 -> 4343 ;
4344 [label="gini = 0.0\nsamples = 2\nvalue = [0, 5, 0, 0]\nclass = decisao", fillcolor="#47e539"] ;
4343 -> 4344 ;
4345 [label="manifestar <= 0.5\ngini = 0.42\nsamples = 18\nvalue = [21, 9, 0, 0]\nclass = outros", fillcolor="#f0b78e"] ;
4343 -> 4345 ;
4346 [label="cpc <= 0.5\ngini = 0.44\nsamples = 17\nvalue = [18, 9, 0, 0]\nclass = outros", fillcolor="#f2c09c"] ;
4345 -> 4346 ;
4347 [label="constatacao <= 0.5\ngini = 0.49\nsamples = 14\nvalue = [12, 9, 0, 0]\nclass = outros", fillcolor="#f8e0ce"] ;
4346 -> 4347 ;
4348 [label="(...)", fillcolor="#C0C0C0"] ;
4347 -> 4348 ;
4371 [label="(...)", fillcolor="#C0C0C0"] ;
4347 -> 4371 ;
4372 [label="gini = 0.0\nsamples = 3\nvalue = [6, 0, 0, 0]\nclass = outros", fillcolor="#e58139"] ;
4346 -> 4372 ;
4373 [label="gini = 0.0\nsamples = 1\nvalue = [3, 0, 0, 0]\nclass = outros", fillcolor="#e58139"] ;
4345 -> 4373 ;
4374 [label="gini = 0.0\nsamples = 2\nvalue = [0, 4, 0, 0]\nclass = decisao", fillcolor="#47e539"] ;
4342 -> 4374 ;
4375 [label="gini = 0.0\nsamples = 3\nvalue = [6, 0, 0, 0]\nclass = outros", fillcolor="#e58139"] ;
4341 -> 4375 ;
4376 [label="gini = 0.0\nsamples = 1\nvalue = [0, 0, 2, 0]\nclass = sentença", fillcolor="#399de5"] ;
4320 -> 4376 ;
4377 [label="gini = 0.0\nsamples = 1\nvalue = [4, 0, 0, 0]\nclass = outros", fillcolor="#e58139"] ;
4319 -> 4377 ;
4378 [label="gini = 0.0\nsamples = 2\nvalue = [3, 0, 0, 0]\nclass = outros", fillcolor="#e58139"] ;
4318 -> 4378 ;
4379 [label="exequente <= 1.5\ngini = 0.65\nsamples = 34\nvalue = [12, 22, 18, 0]\nclass = decisao", fillcolor="#e9fce8"] ;
4261 -> 4379 ;
4380 [label="antonio <= 0.5\ngini = 0.57\nsamples = 24\nvalue = [3, 14, 18, 0]\nclass = sentença", fillcolor="#d9ecfa"] ;
4379 -> 4380 ;
4381 [label="indenizacao <= 0.5\ngini = 0.58\nsamples = 23\nvalue = [3, 14, 15, 0]\nclass = sentença", fillcolor="#f4fafe"] ;
4380 -> 4381 ;
4382 [label="rubiale <= 0.5\ngini = 0.57\nsamples = 21\nvalue = [3, 10, 15, 0]\nclass = sentença", fillcolor="#c8e4f8"] ;
4381 -> 4382 ;
4383 [label="supedaneo <= 0.5\ngini = 0.58\nsamples = 20\nvalue = [3, 10, 14, 0]\nclass = sentença", fillcolor="#d0e8f9"] ;
4382 -> 4383 ;
4384 [label="especial <= 2.5\ngini = 0.6\nsamples = 19\nvalue = [3, 10, 12, 0]\nclass = sentença", fillcolor="#e5f2fc"] ;
4383 -> 4384 ;
4385 [label="julgo <= 0.5\ngini = 0.5\nsamples = 17\nvalue = [0, 10, 12, 0]\nclass = sentença", fillcolor="#deeffb"] ;
4384 -> 4385 ;
4386 [label="proc <= 0.5\ngini = 0.47\nsamples = 9\nvalue = [0, 8, 5, 0]\nclass = decisao", fillcolor="#baf5b5"] ;
4385 -> 4386 ;
4387 [label="advogado <= 0.5\ngini = 0.47\nsamples = 6\nvalue = [0, 3, 5, 0]\nclass = sentença", fillcolor="#b0d8f5"] ;
4386 -> 4387 ;
4388 [label="plantao <= 0.5\ngini = 0.38\nsamples = 4\nvalue = [0, 3, 1, 0]\nclass = decisao", fillcolor="#84ee7b"] ;
4387 -> 4388 ;
4389 [label="quantia <= 0.5\ngini = 0.44\nsamples = 3\nvalue = [0, 2, 1, 0]\nclass = decisao", fillcolor="#a3f29c"] ;
4388 -> 4389 ;
4390 [label="tjmg <= 0.5\ngini = 0.5\nsamples = 2\nvalue = [0, 1, 1, 0]\nclass = decisao", fillcolor="#ffffff"] ;
4389 -> 4390 ;
4391 [label="(...)", fillcolor="#C0C0C0"] ;
4390 -> 4391 ;
4392 [label="(...)", fillcolor="#C0C0C0"] ;
4390 -> 4392 ;
4393 [label="gini = 0.0\nsamples = 1\nvalue = [0, 1, 0, 0]\nclass = decisao", fillcolor="#47e539"] ;
4389 -> 4393 ;
4394 [label="gini = 0.0\nsamples = 1\nvalue = [0, 1, 0, 0]\nclass = decisao", fillcolor="#47e539"] ;
4388 -> 4394 ;
4395 [label="gini = 0.0\nsamples = 2\nvalue = [0, 0, 4, 0]\nclass = sentença", fillcolor="#399de5"] ;
4387 -> 4395 ;
4396 [label="gini = 0.0\nsamples = 3\nvalue = [0, 5, 0, 0]\nclass = decisao", fillcolor="#47e539"] ;
4386 -> 4396 ;
4397 [label="maria <= 0.5\ngini = 0.35\nsamples = 8\nvalue = [0, 2, 7, 0]\nclass = sentença", fillcolor="#72b9ec"] ;
4385 -> 4397 ;
4398 [label="demonstrar <= 0.5\ngini = 0.41\nsamples = 6\nvalue = [0, 2, 5, 0]\nclass = sentença", fillcolor="#88c4ef"] ;
4397 -> 4398 ;
4399 [label="brock <= 1.5\ngini = 0.44\nsamples = 5\nvalue = [0, 2, 4, 0]\nclass = sentença", fillcolor="#9ccef2"] ;
4398 -> 4399 ;
4400 [label="gini = 0.0\nsamples = 2\nvalue = [0, 0, 3, 0]\nclass = sentença", fillcolor="#399de5"] ;
4399 -> 4400 ;
4401 [label="ltda <= 0.5\ngini = 0.44\nsamples = 3\nvalue = [0, 2, 1, 0]\nclass = decisao", fillcolor="#a3f29c"] ;
4399 -> 4401 ;
4402 [label="gini = 0.0\nsamples = 1\nvalue = [0, 1, 0, 0]\nclass = decisao", fillcolor="#47e539"] ;
4401 -> 4402 ;
4403 [label="termos <= 0.5\ngini = 0.5\nsamples = 2\nvalue = [0, 1, 1, 0]\nclass = decisao", fillcolor="#ffffff"] ;
4401 -> 4403 ;
4404 [label="(...)", fillcolor="#C0C0C0"] ;
4403 -> 4404 ;
4405 [label="(...)", fillcolor="#C0C0C0"] ;
4403 -> 4405 ;
4406 [label="gini = 0.0\nsamples = 1\nvalue = [0, 0, 1, 0]\nclass = sentença", fillcolor="#399de5"] ;
4398 -> 4406 ;
4407 [label="gini = 0.0\nsamples = 2\nvalue = [0, 0, 2, 0]\nclass = sentença", fillcolor="#399de5"] ;
4397 -> 4407 ;
4408 [label="gini = 0.0\nsamples = 2\nvalue = [3, 0, 0, 0]\nclass = outros", fillcolor="#e58139"] ;
4384 -> 4408 ;
4409 [label="gini = 0.0\nsamples = 1\nvalue = [0, 0, 2, 0]\nclass = sentença", fillcolor="#399de5"] ;
4383 -> 4409 ;
4410 [label="gini = 0.0\nsamples = 1\nvalue = [0, 0, 1, 0]\nclass = sentença", fillcolor="#399de5"] ;
4382 -> 4410 ;
4411 [label="gini = 0.0\nsamples = 2\nvalue = [0, 4, 0, 0]\nclass = decisao", fillcolor="#47e539"] ;
4381 -> 4411 ;
4412 [label="gini = 0.0\nsamples = 1\nvalue = [0, 0, 3, 0]\nclass = sentença", fillcolor="#399de5"] ;
4380 -> 4412 ;
4413 [label="novo <= 0.5\ngini = 0.5\nsamples = 10\nvalue = [9, 8, 0, 0]\nclass = outros", fillcolor="#fcf1e9"] ;
4379 -> 4413 ;
4414 [label="intimacao <= 0.5\ngini = 0.49\nsamples = 9\nvalue = [9, 7, 0, 0]\nclass = outros", fillcolor="#f9e3d3"] ;
4413 -> 4414 ;
4415 [label="edson <= 0.5\ngini = 0.35\nsamples = 6\nvalue = [2, 7, 0, 0]\nclass = decisao", fillcolor="#7cec72"] ;
4414 -> 4415 ;
4416 [label="intime-se <= 0.5\ngini = 0.44\nsamples = 5\nvalue = [2, 4, 0, 0]\nclass = decisao", fillcolor="#a3f29c"] ;
4415 -> 4416 ;
4417 [label="n <= 0.5\ngini = 0.32\nsamples = 4\nvalue = [1, 4, 0, 0]\nclass = decisao", fillcolor="#75ec6a"] ;
4416 -> 4417 ;
4418 [label="gini = 0.0\nsamples = 2\nvalue = [0, 3, 0, 0]\nclass = decisao", fillcolor="#47e539"] ;
4417 -> 4418 ;
4419 [label="gustavo <= 0.5\ngini = 0.5\nsamples = 2\nvalue = [1, 1, 0, 0]\nclass = outros", fillcolor="#ffffff"] ;
4417 -> 4419 ;
4420 [label="gini = 0.0\nsamples = 1\nvalue = [0, 1, 0, 0]\nclass = decisao", fillcolor="#47e539"] ;
4419 -> 4420 ;
4421 [label="gini = 0.0\nsamples = 1\nvalue = [1, 0, 0, 0]\nclass = outros", fillcolor="#e58139"] ;
4419 -> 4421 ;
4422 [label="gini = 0.0\nsamples = 1\nvalue = [1, 0, 0, 0]\nclass = outros", fillcolor="#e58139"] ;
4416 -> 4422 ;
4423 [label="gini = 0.0\nsamples = 1\nvalue = [0, 3, 0, 0]\nclass = decisao", fillcolor="#47e539"] ;
4415 -> 4423 ;
4424 [label="gini = 0.0\nsamples = 3\nvalue = [7, 0, 0, 0]\nclass = outros", fillcolor="#e58139"] ;
4414 -> 4424 ;
4425 [label="gini = 0.0\nsamples = 1\nvalue = [0, 1, 0, 0]\nclass = decisao", fillcolor="#47e539"] ;
4413 -> 4425 ;
4426 [label="gravacoes <= 0.5\ngini = 0.6\nsamples = 471\nvalue = [69, 253, 373, 26]\nclass = sentença", fillcolor="#cce6f8"] ;
0 -> 4426 [labeldistance=2.5, labelangle=-45, headlabel="False"] ;
4427 [label="correa <= 1.5\ngini = 0.6\nsamples = 470\nvalue = [69, 253, 373, 23]\nclass = sentença", fillcolor="#cce6f8"] ;
4426 -> 4427 ;
4428 [label="requerente <= 0.5\ngini = 0.59\nsamples = 467\nvalue = [66, 247, 373, 23]\nclass = sentença", fillcolor="#c9e4f8"] ;
4427 -> 4428 ;
4429 [label="schlingmann <= 0.5\ngini = 0.59\nsamples = 378\nvalue = [55, 216, 285, 9]\nclass = sentença", fillcolor="#d8ecfa"] ;
4428 -> 4429 ;
4430 [label="conhecer <= 0.5\ngini = 0.59\nsamples = 376\nvalue = [55, 211, 285, 9]\nclass = sentença", fillcolor="#d5eaf9"] ;
4429 -> 4430 ;
4431 [label="fedtj <= 0.5\ngini = 0.59\nsamples = 373\nvalue = [55, 204, 285, 9]\nclass = sentença", fillcolor="#d1e8f9"] ;
4430 -> 4431 ;
4432 [label="mesma <= 1.5\ngini = 0.59\nsamples = 368\nvalue = [55, 197, 285, 9]\nclass = sentença", fillcolor="#cde6f8"] ;
4431 -> 4432 ;
4433 [label="colombo <= 0.5\ngini = 0.59\nsamples = 363\nvalue = [55, 192, 284, 9]\nclass = sentença", fillcolor="#cbe5f8"] ;
4432 -> 4433 ;
4434 [label="antecipado <= 0.5\ngini = 0.59\nsamples = 361\nvalue = [55, 187, 284, 9]\nclass = sentença", fillcolor="#c8e4f8"] ;
4433 -> 4434 ;
4435 [label="manifeste-se <= 0.5\ngini = 0.58\nsamples = 357\nvalue = [55, 183, 284, 9]\nclass = sentença", fillcolor="#c6e3f7"] ;
4434 -> 4435 ;
4436 [label="bahia <= 0.5\ngini = 0.58\nsamples = 351\nvalue = [55, 173, 284, 9]\nclass = sentença", fillcolor="#c0e0f7"] ;
4435 -> 4436 ;
4437 [label="arquivemse <= 0.5\ngini = 0.59\nsamples = 336\nvalue = [55, 170, 265, 8]\nclass = sentença", fillcolor="#c6e3f7"] ;
4436 -> 4437 ;
4438 [label="publico <= 0.5\ngini = 0.59\nsamples = 333\nvalue = [55, 165, 265, 8]\nclass = sentença", fillcolor="#c3e1f7"] ;
4437 -> 4438 ;
4439 [label="informacao <= 0.5\ngini = 0.58\nsamples = 327\nvalue = [55, 160, 265, 7]\nclass = sentença", fillcolor="#bfe0f7"] ;
4438 -> 4439 ;
4440 [label="ja <= 0.5\ngini = 0.58\nsamples = 317\nvalue = [51, 149, 261, 7]\nclass = sentença", fillcolor="#b9ddf6"] ;
4439 -> 4440 ;
4441 [label="(...)", fillcolor="#C0C0C0"] ;
4440 -> 4441 ;
4720 [label="(...)", fillcolor="#C0C0C0"] ;
4440 -> 4720 ;
4779 [label="samsumg <= 0.5\ngini = 0.58\nsamples = 10\nvalue = [4, 11, 4, 0]\nclass = decisao", fillcolor="#a9f3a3"] ;
4439 -> 4779 ;
4780 [label="(...)", fillcolor="#C0C0C0"] ;
4779 -> 4780 ;
4793 [label="(...)", fillcolor="#C0C0C0"] ;
4779 -> 4793 ;
4794 [label="nao <= 0.5\ngini = 0.28\nsamples = 6\nvalue = [0, 5, 0, 1]\nclass = decisao", fillcolor="#6cea61"] ;
4438 -> 4794 ;
4795 [label="justica <= 0.5\ngini = 0.38\nsamples = 4\nvalue = [0, 3, 0, 1]\nclass = decisao", fillcolor="#84ee7b"] ;
4794 -> 4795 ;
4796 [label="(...)", fillcolor="#C0C0C0"] ;
4795 -> 4796 ;
4801 [label="(...)", fillcolor="#C0C0C0"] ;
4795 -> 4801 ;
4802 [label="gini = 0.0\nsamples = 2\nvalue = [0, 2, 0, 0]\nclass = decisao", fillcolor="#47e539"] ;
4794 -> 4802 ;
4803 [label="gini = 0.0\nsamples = 3\nvalue = [0, 5, 0, 0]\nclass = decisao", fillcolor="#47e539"] ;
4437 -> 4803 ;
4804 [label="adquirido <= 1.5\ngini = 0.3\nsamples = 15\nvalue = [0, 3, 19, 1]\nclass = sentença", fillcolor="#61b1ea"] ;
4436 -> 4804 ;
4805 [label="autor <= 1.5\ngini = 0.35\nsamples = 14\nvalue = [0, 3, 15, 1]\nclass = sentença", fillcolor="#6ab6ec"] ;
4804 -> 4805 ;
4806 [label="brasileiro <= 1.5\ngini = 0.21\nsamples = 13\nvalue = [0, 1, 15, 1]\nclass = sentença", fillcolor="#52a9e8"] ;
4805 -> 4806 ;
4807 [label="dpj <= 0.5\ngini = 0.26\nsamples = 12\nvalue = [0, 1, 12, 1]\nclass = sentença", fillcolor="#57ace9"] ;
4806 -> 4807 ;
4808 [label="(...)", fillcolor="#C0C0C0"] ;
4807 -> 4808 ;
4809 [label="(...)", fillcolor="#C0C0C0"] ;
4807 -> 4809 ;
4812 [label="gini = 0.0\nsamples = 1\nvalue = [0, 0, 3, 0]\nclass = sentença", fillcolor="#399de5"] ;
4806 -> 4812 ;
4813 [label="gini = 0.0\nsamples = 1\nvalue = [0, 2, 0, 0]\nclass = decisao", fillcolor="#47e539"] ;
4805 -> 4813 ;
4814 [label="gini = 0.0\nsamples = 1\nvalue = [0, 0, 4, 0]\nclass = sentença", fillcolor="#399de5"] ;
4804 -> 4814 ;
4815 [label="gini = 0.0\nsamples = 6\nvalue = [0, 10, 0, 0]\nclass = decisao", fillcolor="#47e539"] ;
4435 -> 4815 ;
4816 [label="gini = 0.0\nsamples = 4\nvalue = [0, 4, 0, 0]\nclass = decisao", fillcolor="#47e539"] ;
4434 -> 4816 ;
4817 [label="gini = 0.0\nsamples = 2\nvalue = [0, 5, 0, 0]\nclass = decisao", fillcolor="#47e539"] ;
4433 -> 4817 ;
4818 [label="decido <= 0.5\ngini = 0.28\nsamples = 5\nvalue = [0, 5, 1, 0]\nclass = decisao", fillcolor="#6cea61"] ;
4432 -> 4818 ;
4819 [label="gini = 0.0\nsamples = 3\nvalue = [0, 4, 0, 0]\nclass = decisao", fillcolor="#47e539"] ;
4818 -> 4819 ;
4820 [label="celular <= 2.0\ngini = 0.5\nsamples = 2\nvalue = [0, 1, 1, 0]\nclass = decisao", fillcolor="#ffffff"] ;
4818 -> 4820 ;
4821 [label="gini = 0.0\nsamples = 1\nvalue = [0, 1, 0, 0]\nclass = decisao", fillcolor="#47e539"] ;
4820 -> 4821 ;
4822 [label="gini = 0.0\nsamples = 1\nvalue = [0, 0, 1, 0]\nclass = sentença", fillcolor="#399de5"] ;
4820 -> 4822 ;
4823 [label="gini = 0.0\nsamples = 5\nvalue = [0, 7, 0, 0]\nclass = decisao", fillcolor="#47e539"] ;
4431 -> 4823 ;
4824 [label="gini = 0.0\nsamples = 3\nvalue = [0, 7, 0, 0]\nclass = decisao", fillcolor="#47e539"] ;
4430 -> 4824 ;
4825 [label="gini = 0.0\nsamples = 2\nvalue = [0, 5, 0, 0]\nclass = decisao", fillcolor="#47e539"] ;
4429 -> 4825 ;
4826 [label="imperatriz-ma <= 1.0\ngini = 0.56\nsamples = 89\nvalue = [11, 31, 88, 14]\nclass = sentença", fillcolor="#9bcef2"] ;
4428 -> 4826 ;
4827 [label="sentenca <= 2.5\ngini = 0.54\nsamples = 88\nvalue = [11, 31, 88, 10]\nclass = sentença", fillcolor="#97ccf1"] ;
4826 -> 4827 ;
4828 [label="simonne <= 1.0\ngini = 0.51\nsamples = 80\nvalue = [11, 20, 85, 10]\nclass = sentença", fillcolor="#86c3ef"] ;
4827 -> 4828 ;
4829 [label="levando-se <= 0.5\ngini = 0.48\nsamples = 79\nvalue = [11, 20, 85, 6]\nclass = sentença", fillcolor="#81c1ee"] ;
4828 -> 4829 ;
4830 [label="parcela <= 0.5\ngini = 0.46\nsamples = 78\nvalue = [11, 20, 85, 4]\nclass = sentença", fillcolor="#7ebfee"] ;
4829 -> 4830 ;
4831 [label="dia <= 1.5\ngini = 0.44\nsamples = 76\nvalue = [11, 17, 85, 4]\nclass = sentença", fillcolor="#78bced"] ;
4830 -> 4831 ;
4832 [label="horas <= 0.5\ngini = 0.42\nsamples = 74\nvalue = [11, 17, 85, 2]\nclass = sentença", fillcolor="#76bbed"] ;
4831 -> 4832 ;
4833 [label="arantes <= 0.5\ngini = 0.37\nsamples = 68\nvalue = [9, 15, 83, 0]\nclass = sentença", fillcolor="#6db7ec"] ;
4832 -> 4833 ;
4834 [label="pagas <= 0.5\ngini = 0.36\nsamples = 67\nvalue = [8, 15, 83, 0]\nclass = sentença", fillcolor="#6bb6ec"] ;
4833 -> 4834 ;
4835 [label="verdadeiramente <= 0.5\ngini = 0.33\nsamples = 65\nvalue = [8, 12, 83, 0]\nclass = sentença", fillcolor="#65b3eb"] ;
4834 -> 4835 ;
4836 [label="bastos <= 0.5\ngini = 0.32\nsamples = 64\nvalue = [8, 11, 83, 0]\nclass = sentença", fillcolor="#62b1ea"] ;
4835 -> 4836 ;
4837 [label="finalista <= 0.5\ngini = 0.33\nsamples = 62\nvalue = [8, 11, 79, 0]\nclass = sentença", fillcolor="#64b2eb"] ;
4836 -> 4837 ;
4838 [label="(...)", fillcolor="#C0C0C0"] ;
4837 -> 4838 ;
4893 [label="(...)", fillcolor="#C0C0C0"] ;
4837 -> 4893 ;
4894 [label="gini = 0.0\nsamples = 2\nvalue = [0, 0, 4, 0]\nclass = sentença", fillcolor="#399de5"] ;
4836 -> 4894 ;
4895 [label="gini = 0.0\nsamples = 1\nvalue = [0, 1, 0, 0]\nclass = decisao", fillcolor="#47e539"] ;
4835 -> 4895 ;
4896 [label="gini = 0.0\nsamples = 2\nvalue = [0, 3, 0, 0]\nclass = decisao", fillcolor="#47e539"] ;
4834 -> 4896 ;
4897 [label="gini = 0.0\nsamples = 1\nvalue = [1, 0, 0, 0]\nclass = outros", fillcolor="#e58139"] ;
4833 -> 4897 ;
4898 [label="julgo <= 0.5\ngini = 0.75\nsamples = 6\nvalue = [2, 2, 2, 2]\nclass = outros", fillcolor="#ffffff"] ;
4832 -> 4898 ;
4899 [label="juiz <= 0.5\ngini = 0.5\nsamples = 3\nvalue = [0, 2, 0, 2]\nclass = decisao", fillcolor="#ffffff"] ;
4898 -> 4899 ;
4900 [label="cíveis <= 0.5\ngini = 0.44\nsamples = 2\nvalue = [0, 2, 0, 1]\nclass = decisao", fillcolor="#a3f29c"] ;
4899 -> 4900 ;
4901 [label="gini = 0.0\nsamples = 1\nvalue = [0, 0, 0, 1]\nclass = audiencia", fillcolor="#d739e5"] ;
4900 -> 4901 ;
4902 [label="gini = 0.0\nsamples = 1\nvalue = [0, 2, 0, 0]\nclass = decisao", fillcolor="#47e539"] ;
4900 -> 4902 ;
4903 [label="gini = 0.0\nsamples = 1\nvalue = [0, 0, 0, 1]\nclass = audiencia", fillcolor="#d739e5"] ;
4899 -> 4903 ;
4904 [label="inicial <= 1.5\ngini = 0.5\nsamples = 3\nvalue = [2, 0, 2, 0]\nclass = outros", fillcolor="#ffffff"] ;
4898 -> 4904 ;
4905 [label="gini = 0.0\nsamples = 2\nvalue = [2, 0, 0, 0]\nclass = outros", fillcolor="#e58139"] ;
4904 -> 4905 ;
4906 [label="gini = 0.0\nsamples = 1\nvalue = [0, 0, 2, 0]\nclass = sentença", fillcolor="#399de5"] ;
4904 -> 4906 ;
4907 [label="gini = 0.0\nsamples = 2\nvalue = [0, 0, 0, 2]\nclass = audiencia", fillcolor="#d739e5"] ;
4831 -> 4907 ;
4908 [label="gini = 0.0\nsamples = 2\nvalue = [0, 3, 0, 0]\nclass = decisao", fillcolor="#47e539"] ;
4830 -> 4908 ;
4909 [label="gini = 0.0\nsamples = 1\nvalue = [0, 0, 0, 2]\nclass = audiencia", fillcolor="#d739e5"] ;
4829 -> 4909 ;
